{
  "type": "LSTMTimeStep",
  "options": {
    "inputSize": 1,
    "inputRange": 0,
    "hiddenLayers": [
      20
    ],
    "outputSize": 1,
    "decayRate": 0.999,
    "smoothEps": 1e-8,
    "regc": 0.000001,
    "clipval": 5,
    "maxPredictionLength": 100,
    "dataFormatter": {
      "indexTable": {},
      "characterTable": {},
      "characters": [],
      "specialIndexes": []
    }
  },
  "hiddenLayers": [
    {
      "inputMatrix": {
        "rows": 20,
        "columns": 1,
        "weights": [
          0.06981809437274933,
          0.005744816269725561,
          0.002813254715874791,
          0.005703162867575884,
          0.0828106701374054,
          0.1275053173303604,
          0.20671981573104858,
          0.039710186421871185,
          0.010141049511730671,
          0.009903515689074993,
          0.15335576236248016,
          0.14367640018463135,
          0.09369686245918274,
          0.44857892394065857,
          -0.003875662572681904,
          0.004015372600406408,
          0.033768247812986374,
          0.008400105871260166,
          0.0018019818235188723,
          0.0066594467498362064
        ]
      },
      "inputHidden": {
        "rows": 20,
        "columns": 20,
        "weights": [
          -9.827314376831055,
          -5.807559013366699,
          -2.6294045448303223,
          -4.027586460113525,
          0.6502538323402405,
          -9.163487434387207,
          3.551445722579956,
          0.4639376997947693,
          -2.1747519969940186,
          0.5206807851791382,
          1.6200909614562988,
          -0.6103139519691467,
          7.843287467956543,
          8.716887474060059,
          -1.9681490659713745,
          -1.6779768466949463,
          0.6876293420791626,
          -30.71695327758789,
          -4.015619277954102,
          -2.6826155185699463,
          -0.16079837083816528,
          1.7822744846343994,
          -66.07381439208984,
          5.930761814117432,
          0.12095200270414352,
          -0.43297791481018066,
          0.5315696001052856,
          0.8023916482925415,
          -6.062901496887207,
          -0.9314801096916199,
          0.5988382697105408,
          -0.14880096912384033,
          -0.4350334107875824,
          -0.009398180060088634,
          2.3793938159942627,
          -0.02888398803770542,
          -0.9325988292694092,
          447.7273254394531,
          8.624473571777344,
          1.3189154863357544,
          -7.144021987915039,
          58.29684066772461,
          118.72785949707031,
          53.611148834228516,
          86.90591430664062,
          -29.21901512145996,
          49.69256591796875,
          6.709688663482666,
          -208.22311401367188,
          56.35811233520508,
          -112.64260864257812,
          1.2650645971298218,
          10.84920597076416,
          -110.02090454101562,
          -278.5655212402344,
          -61.113285064697266,
          52.44178009033203,
          -628.8633422851562,
          -100.3232650756836,
          -70.0419921875,
          2.135711193084717,
          0.7532739043235779,
          -7.041131496429443,
          1.3065403699874878,
          0.22374257445335388,
          -0.03545457124710083,
          0.0047349571250379086,
          -0.224531888961792,
          0.9144455790519714,
          0.7398059368133545,
          0.05385160818696022,
          0.12778477370738983,
          -0.03836600482463837,
          0.004236994776874781,
          -1.1427193880081177,
          -0.04108569398522377,
          0.03297131136059761,
          3.3612873554229736,
          -1.4399094581604004,
          -1.0255411863327026,
          -0.013178413733839989,
          0.7699973583221436,
          0.29017576575279236,
          -0.28263750672340393,
          -0.22153840959072113,
          -0.1623581498861313,
          0.07144636660814285,
          0.08571337908506393,
          0.15026487410068512,
          -0.21518570184707642,
          -0.23871870338916779,
          -0.04036598652601242,
          0.07727573812007904,
          -0.0970546156167984,
          -1.7793325185775757,
          -0.09993519634008408,
          -0.016370831057429314,
          0.2393723428249359,
          -1.2767313718795776,
          -0.10298539698123932,
          1.2058780193328857,
          1.048008680343628,
          -1.2234512567520142,
          -1.5531387329101562,
          0.5828161239624023,
          -1.632204294204712,
          0.5874489545822144,
          0.1990177035331726,
          -0.3662717044353485,
          0.16760152578353882,
          -0.58074951171875,
          0.0908268615603447,
          -0.1924935132265091,
          -0.24863183498382568,
          -0.5720475316047668,
          0.4676317274570465,
          -0.11886461824178696,
          -0.7419472336769104,
          -3.2001242637634277,
          -5.754825115203857,
          -516.0269165039062,
          -120.55382537841797,
          77.59748077392578,
          -264.32025146484375,
          -165.85986328125,
          -141.0946807861328,
          -465.5845947265625,
          -358.54571533203125,
          -511.8752746582031,
          143.69224548339844,
          90.47833251953125,
          166.01441955566406,
          -605.0491943359375,
          -79.65478515625,
          -264.600830078125,
          88.95751190185547,
          44.60721206665039,
          -762.92138671875,
          162.67233276367188,
          160.3760986328125,
          0.02092151530086994,
          1.7493469715118408,
          -0.10192926228046417,
          -1.7021305561065674,
          0.7469615936279297,
          0.2708367705345154,
          0.6184689998626709,
          0.2836354076862335,
          0.1129147857427597,
          0.3339078426361084,
          0.17365145683288574,
          -0.21344394981861115,
          0.5992879867553711,
          0.15248806774616241,
          3.7054877281188965,
          -0.1655643880367279,
          0.13774749636650085,
          1.299211859703064,
          -0.4469029903411865,
          -0.30253323912620544,
          15.2799711227417,
          -1.9236462116241455,
          69.78874206542969,
          0.2957669198513031,
          1.7598309516906738,
          8.132904052734375,
          3.8121120929718018,
          -0.1225191131234169,
          36.273582458496094,
          0.29684293270111084,
          1.8296416997909546,
          -1.4150856733322144,
          4.232819080352783,
          -1.3295586109161377,
          8.778125762939453,
          0.417399138212204,
          6.2245354652404785,
          29.577075958251953,
          -0.8292336463928223,
          -1.799210548400879,
          0.015607652254402637,
          0.3705160617828369,
          -2.702998161315918,
          0.4216371178627014,
          0.2188589721918106,
          0.020880037918686867,
          -0.11041766405105591,
          -0.32235562801361084,
          -0.2905738949775696,
          0.1763043999671936,
          0.3637716472148895,
          0.10872334986925125,
          -0.4233456254005432,
          0.21989788115024567,
          -1.7621324062347412,
          -0.3038392663002014,
          -0.2752454876899719,
          0.41038480401039124,
          -0.924726665019989,
          0.25371670722961426,
          -0.18943944573402405,
          -1.1490962505340576,
          -0.20515753328800201,
          2.9216954708099365,
          -1.9523741006851196,
          0.16725048422813416,
          -1.4901926517486572,
          -0.20361444354057312,
          -0.11552722752094269,
          -1.1466658115386963,
          -1.455042839050293,
          0.8544508814811707,
          -1.202129602432251,
          -0.10651042312383652,
          -2.218904495239258,
          1.1587787866592407,
          -0.11522936075925827,
          -1.376384973526001,
          -3.9119694232940674,
          -0.8547139167785645,
          0.8246552348136902,
          3.7108700275421143,
          27.145410537719727,
          1.8241270780563354,
          -0.5362806916236877,
          5.183686256408691,
          -0.8782131671905518,
          1.67304527759552,
          2.666469097137451,
          -1.0585397481918335,
          -0.49217402935028076,
          1.2812495231628418,
          -1.2355915307998657,
          2.042851686477661,
          -9.962526321411133,
          1.2238095998764038,
          -0.6117926239967346,
          -71.28803253173828,
          -10.084711074829102,
          3.6710152626037598,
          0.111884705722332,
          -1.8382524251937866,
          -4.986323833465576,
          0.9376715421676636,
          -0.08907470852136612,
          0.12778057157993317,
          -0.40865451097488403,
          -0.3563718795776367,
          2.030832290649414,
          -0.05113644897937775,
          0.030546288937330246,
          0.1555258333683014,
          -0.40647876262664795,
          -0.14321880042552948,
          -4.789421558380127,
          0.47745782136917114,
          -0.06293804198503494,
          3.0512702465057373,
          -1.102751612663269,
          -2.0079267024993896,
          4.4844536781311035,
          3.017239809036255,
          -7.440997123718262,
          -7.480654239654541,
          -0.7003554701805115,
          -10.49377155303955,
          0.5101262927055359,
          -0.5539519190788269,
          -15.359472274780273,
          -1.1773988008499146,
          -0.16148793697357178,
          0.9675890803337097,
          5.227701187133789,
          -3.756978988647461,
          28.204456329345703,
          -1.4597963094711304,
          -5.314682483673096,
          41.81536102294922,
          11.81760025024414,
          5.7100958824157715,
          -3.8845841884613037,
          -2.018519878387451,
          -18.156352996826172,
          -1.5688111782073975,
          -0.2635663151741028,
          0.5591259598731995,
          1.0100505352020264,
          -1.7763043642044067,
          -9.090607643127441,
          3.0264570713043213,
          -0.10058256983757019,
          0.031648166477680206,
          3.2936899662017822,
          1.0475938320159912,
          1.8351314067840576,
          -1.7485394477844238,
          0.37160322070121765,
          6.192065238952637,
          -24.90653419494629,
          -2.845954418182373,
          -0.31438156962394714,
          0.5537019968032837,
          7.73760461807251,
          -0.01741449162364006,
          0.06386328488588333,
          0.2292383313179016,
          -0.09799358248710632,
          -0.13401535153388977,
          0.6484024524688721,
          0.0586136132478714,
          0.14890532195568085,
          -0.03495950624346733,
          0.02291770465672016,
          0.1498344987630844,
          0.014947221614420414,
          -0.4927074909210205,
          -0.0643402487039566,
          -5.437902927398682,
          1.0776035785675049,
          -0.6497656106948853,
          1.566202163696289,
          3.5023257732391357,
          -4.2264509201049805,
          5.90537691116333,
          -0.00293015968054533,
          4.055428504943848,
          -0.11590278893709183,
          0.08693160116672516,
          -3.478149652481079,
          -0.20249013602733612,
          -0.5636524558067322,
          0.19469425082206726,
          0.5227017402648926,
          -0.5238664746284485,
          -4.826431751251221,
          -0.4111708402633667,
          0.03408015891909599,
          1.1274571418762207,
          -1.5799460411071777,
          3.8370649814605713,
          -5.694401741027832,
          11.111750602722168,
          72.54692077636719,
          17.55844497680664,
          1.8942248821258545,
          10.653091430664062,
          6.9372358322143555,
          1.5529512166976929,
          11.323102951049805,
          9.358795166015625,
          3.7102513313293457,
          -2.6814181804656982,
          0.519691526889801,
          1.28940749168396,
          -33.678810119628906,
          -8.29068374633789,
          0.16181370615959167,
          165.57730102539062,
          15.43605899810791,
          15.681018829345703,
          -0.4696899652481079,
          0.21465598046779633,
          4.994657516479492,
          -0.02744697406888008,
          -0.13620877265930176,
          0.198746919631958,
          -0.06495466083288193,
          0.03645182400941849,
          3.730198860168457,
          0.31370750069618225,
          -0.14688748121261597,
          0.020934388041496277,
          -0.11627204716205597,
          0.12053670734167099,
          -1.1297444105148315,
          -0.7632848620414734,
          0.24693584442138672,
          4.157520294189453,
          -0.3463532328605652,
          -2.0396831035614014,
          -0.6451860666275024,
          -0.012601034715771675,
          9.83095645904541,
          41.91171646118164,
          1.1129004955291748,
          -0.6980147361755371,
          11.660654067993164,
          2.0009889602661133,
          -8.18142032623291,
          3.4155361652374268,
          -0.7016271948814392,
          -0.393941193819046,
          2.8845643997192383,
          0.3466845750808716,
          -0.39338696002960205,
          2.5722286701202393,
          0.8485888242721558,
          -21.0390567779541,
          13.562716484069824,
          2.2140884399414062
        ]
      },
      "inputBias": {
        "rows": 20,
        "columns": 1,
        "weights": [
          -0.2279985100030899,
          0.026754627004265785,
          -0.08193802833557129,
          0.0126229552552104,
          -0.05457986146211624,
          -0.011893750168383121,
          0.017828775569796562,
          0.028453117236495018,
          -0.010995136573910713,
          0.008382845669984818,
          -0.0891781821846962,
          0.2671952247619629,
          0.038030073046684265,
          -0.42113015055656433,
          -0.04705946892499924,
          -0.054724521934986115,
          0.11432179808616638,
          -0.044727426022291183,
          -0.007315312046557665,
          0.03791626915335655
        ]
      },
      "forgetMatrix": {
        "rows": 20,
        "columns": 1,
        "weights": [
          0.648080050945282,
          29.846580505371094,
          -30.955059051513672,
          -1.0494990348815918,
          0.0066488562151789665,
          4.7806549072265625,
          1.8536458015441895,
          -2.9397246837615967,
          1.5957657098770142,
          0.33334508538246155,
          -1.7184277772903442,
          0.22823669016361237,
          0.005627474281936884,
          -0.06270252913236618,
          0.9067910313606262,
          1.6350473165512085,
          0.02761036530137062,
          6.3322858810424805,
          0.6903552412986755,
          0.9649248123168945
        ]
      },
      "forgetHidden": {
        "rows": 20,
        "columns": 20,
        "weights": [
          -1.9191980361938477,
          -6.2436017990112305,
          -1.2710450887680054,
          -6.43223237991333,
          11.69681167602539,
          -12.061715126037598,
          14.95251750946045,
          -3.097259521484375,
          5.718474864959717,
          -20.11737060546875,
          18.53253936767578,
          -6.938492298126221,
          -7.548912525177002,
          -0.21818260848522186,
          -4.068404674530029,
          7.453460693359375,
          1.0480575561523438,
          28.173826217651367,
          20.357168197631836,
          -1.3185044527053833,
          -80.67646789550781,
          -67.03787994384766,
          1368.7342529296875,
          137.4252166748047,
          -27.795490264892578,
          32.67412567138672,
          -140.02256774902344,
          -118.82144165039062,
          -60.370426177978516,
          -36.398826599121094,
          -6.625748157501221,
          31.658615112304688,
          -64.28929138183594,
          49.37521743774414,
          87.91658020019531,
          -45.981021881103516,
          -31.072242736816406,
          -689.8101196289062,
          54.79987335205078,
          2.347647190093994,
          8.525915145874023,
          19.45741081237793,
          -7.770225524902344,
          7.774848937988281,
          22.218994140625,
          11.58605670928955,
          16.03514862060547,
          16.541006088256836,
          17.436176300048828,
          12.331923484802246,
          46.56821823120117,
          -18.010988235473633,
          25.06154441833496,
          -4.774311542510986,
          -16.689390182495117,
          -24.72452163696289,
          10.214021682739258,
          -35.16599655151367,
          -16.28434181213379,
          -27.971485137939453,
          -9.774670600891113,
          7.356231689453125,
          7.4815993309021,
          -3.185042381286621,
          2.1915972232818604,
          9.020919799804688,
          3.464099168777466,
          0.6674864888191223,
          2.241356134414673,
          5.422895431518555,
          2.897125005722046,
          -0.9481406211853027,
          2.420137643814087,
          -2.8227572441101074,
          -3.444056987762451,
          -4.690064907073975,
          3.657731294631958,
          -10.873954772949219,
          4.085392951965332,
          1.8920621871948242,
          -0.26372072100639343,
          2.137981414794922,
          1.4903526306152344,
          -0.03820419684052467,
          0.11815696954727173,
          -1.4887816905975342,
          -2.428666353225708,
          0.10231137275695801,
          4.750265598297119,
          0.4068898856639862,
          -0.08247312158346176,
          -0.27665334939956665,
          -0.20002101361751556,
          0.7950670123100281,
          -1.4802041053771973,
          -0.7601064443588257,
          -0.0435088649392128,
          1.9386900663375854,
          1.9985122680664062,
          -0.4124583601951599,
          -34.648197174072266,
          -23.18077850341797,
          -0.43038493394851685,
          -27.12348175048828,
          19.569028854370117,
          20.206815719604492,
          7.497474670410156,
          53.45043182373047,
          -27.971641540527344,
          30.824600219726562,
          -5.358402729034424,
          -38.112945556640625,
          17.835237503051758,
          56.746681213378906,
          32.19974136352539,
          -12.82718276977539,
          30.278400421142578,
          -17.687620162963867,
          45.952701568603516,
          19.846702575683594,
          -2.9250295162200928,
          -43.47367858886719,
          389.50982666015625,
          -75.6312255859375,
          -8.51010513305664,
          17.42591667175293,
          -2.4078164100646973,
          -10.553010940551758,
          0.31961530447006226,
          11.295161247253418,
          -8.985602378845215,
          -17.30466079711914,
          8.484299659729004,
          18.993852615356445,
          -0.4026837646961212,
          -4.081425189971924,
          17.763586044311523,
          -587.6566772460938,
          91.15109252929688,
          45.68404769897461,
          -0.5376264452934265,
          13.264098167419434,
          -22.076143264770508,
          -17.748201370239258,
          -1.28196120262146,
          13.896163940429688,
          -4.043665409088135,
          -3.4833362102508545,
          -1.0909944772720337,
          -10.386239051818848,
          5.4481353759765625,
          -6.024905204772949,
          -3.404313325881958,
          -4.167238712310791,
          -18.71103858947754,
          9.875211715698242,
          1.2985625267028809,
          -29.79638671875,
          -5.955621242523193,
          1.1638134717941284,
          2.9265456199645996,
          16.372060775756836,
          11.731521606445312,
          1.991124153137207,
          -30.20307731628418,
          -8.04629898071289,
          -3.7749149799346924,
          2.1597900390625,
          -10.052098274230957,
          8.558682441711426,
          -14.772762298583984,
          17.99958038330078,
          -15.1220064163208,
          3.975670337677002,
          -1.3944212198257446,
          19.225149154663086,
          -0.4370999038219452,
          -0.7107536196708679,
          4.200789451599121,
          0.5114404559135437,
          -2.270174741744995,
          1.075457215309143,
          -3.4800236225128174,
          -0.43891841173171997,
          1.1379477977752686,
          1.8781040906906128,
          0.2953895330429077,
          0.6741134524345398,
          2.115184783935547,
          -0.15880750119686127,
          -1.2641685009002686,
          -0.12220040708780289,
          -0.2791925072669983,
          2.3113338947296143,
          -13.3932466506958,
          -0.5640466213226318,
          -0.9157435894012451,
          -45.019752502441406,
          -5.2523393630981445,
          1.8675479888916016,
          126.7695083618164,
          -19.761812210083008,
          62.91788101196289,
          -30.93902587890625,
          13.627195358276367,
          -10.406949996948242,
          14.124261856079102,
          5.987311363220215,
          -69.68826293945312,
          0.694491982460022,
          -1.0452018976211548,
          -7.103779315948486,
          83.31088256835938,
          4.456233024597168,
          -58.097415924072266,
          0.6667503714561462,
          -49.43723678588867,
          102.86376190185547,
          9.872702598571777,
          -43.1447639465332,
          7.863096237182617,
          -1.9860843420028687,
          11.096982955932617,
          4.41555643081665,
          11.175518989562988,
          -3.745389223098755,
          -4.720694065093994,
          2.331906795501709,
          0.12137258052825928,
          -8.03977108001709,
          -4.440033912658691,
          1.1120365858078003,
          -6.001878261566162,
          0.8888961672782898,
          -14.86680793762207,
          1.256152629852295,
          -0.4071847200393677,
          737.4931030273438,
          -29.464113235473633,
          -1.5389236211776733,
          0.031794484704732895,
          -0.14849638938903809,
          2.471998691558838,
          -0.33996933698654175,
          -0.34630852937698364,
          -0.006364275701344013,
          -0.001096904743462801,
          -0.03013322502374649,
          0.2637157738208771,
          -0.158790722489357,
          -0.0015479931607842445,
          0.20299150049686432,
          -0.2173355519771576,
          -0.014105377718806267,
          0.0389084555208683,
          -0.14739874005317688,
          -0.015224623493850231,
          -1.3273404836654663,
          -2.914425849914551,
          -0.010851304046809673,
          1.822730541229248,
          -0.5996967554092407,
          5.172589302062988,
          0.7870785593986511,
          0.09937555342912674,
          -0.6772216558456421,
          0.521777331829071,
          0.3401446044445038,
          -2.049516201019287,
          0.737477719783783,
          0.26414331793785095,
          -0.376078337430954,
          0.6715437173843384,
          0.04401671141386032,
          4.585714340209961,
          -0.6046289205551147,
          0.5099972486495972,
          -0.6731399297714233,
          1.7345019578933716,
          2.823387622833252,
          2.5388786792755127,
          1.3656092882156372,
          24.303115844726562,
          9.817764282226562,
          4.243465423583984,
          0.3969700038433075,
          1.2312020063400269,
          1.9154291152954102,
          5.316434860229492,
          -3.0257296562194824,
          -0.7013142108917236,
          -0.8264658451080322,
          -3.0292720794677734,
          7.843297481536865,
          -6.9261393547058105,
          -1.7396541833877563,
          -1.9988313913345337,
          -82.1843032836914,
          2.739692449569702,
          8.977555274963379,
          -15.035415649414062,
          -2.471670627593994,
          -9.518051147460938,
          -1.6466180086135864,
          1.2035847902297974,
          -4.844651699066162,
          -0.20615257322788239,
          10.863422393798828,
          1.3383004665374756,
          4.157708644866943,
          5.760029315948486,
          -3.136777400970459,
          1.1786564588546753,
          6.6635661125183105,
          0.8826378583908081,
          -1.025222897529602,
          -2.7045929431915283,
          -27.270875930786133,
          -11.939713478088379,
          4.31875467300415,
          11.13161563873291,
          0.22396713495254517,
          32.96775817871094,
          4.718572616577148,
          0.32744941115379333,
          4.322107791900635,
          2.2705135345458984,
          0.998968243598938,
          -6.484986305236816,
          -0.9283161759376526,
          0.12930136919021606,
          -0.32235634326934814,
          0.30789846181869507,
          0.7590134143829346,
          -7.072150230407715,
          0.3100821077823639,
          0.020398633554577827,
          -0.3143671452999115,
          -13.700572967529297,
          1.0299932956695557,
          13.020590782165527,
          32.212974548339844,
          87.91473388671875,
          -17.90776824951172,
          -8.693817138671875,
          21.09168243408203,
          23.15878677368164,
          39.742469787597656,
          25.140363693237305,
          49.114742279052734,
          48.60619354248047,
          2.229918956756592,
          3.574523687362671,
          -54.331886291503906,
          -52.05732727050781,
          -3.619325637817383,
          -15.736244201660156,
          53.65837860107422,
          -25.68549346923828,
          -46.65194320678711,
          2.0085041522979736,
          0.489827036857605,
          -23.266704559326172,
          -10.037672996520996,
          1.251597285270691,
          -0.01744561642408371,
          0.32888707518577576,
          -10.382345199584961,
          -4.289194583892822,
          -3.06443452835083,
          4.524214744567871,
          0.33197227120399475,
          -0.5110683441162109,
          -4.971753120422363,
          -6.0380754470825195,
          0.19424690306186676,
          2.490551710128784,
          192.59539794921875,
          24.24257469177246,
          14.748821258544922,
          1.908881425857544,
          1.6218987703323364,
          -0.12049505114555359,
          6.672895908355713,
          -1.874808430671692,
          -0.9338535666465759,
          0.8027368187904358,
          -0.4602888822555542,
          -1.773080587387085,
          -1.9382131099700928,
          -0.026582838967442513,
          0.4346766471862793,
          0.09972821176052094,
          -1.4481329917907715,
          -3.1754531860351562,
          -0.5674488544464111,
          -0.8966947793960571,
          3.954866647720337,
          -0.8804025053977966,
          0.4842374920845032
        ]
      },
      "forgetBias": {
        "rows": 20,
        "columns": 1,
        "weights": [
          0,
          0,
          0,
          0,
          0,
          0,
          0,
          0,
          0,
          0,
          0,
          0,
          0,
          0,
          0,
          0,
          0,
          0,
          0,
          0
        ]
      },
      "outputMatrix": {
        "rows": 20,
        "columns": 1,
        "weights": [
          0.07914649695158005,
          0.0027206609956920147,
          0.002494753571227193,
          0.002197040943428874,
          0.08193765580654144,
          0.08354850858449936,
          0.025052133947610855,
          0.09420876950025558,
          0.003290527733042836,
          0.0008397233905270696,
          0.0973745808005333,
          0.11331096291542053,
          0.10035930573940277,
          0.06669279932975769,
          -0.003190572140738368,
          0.005889299791306257,
          0.08060294389724731,
          0.0007156844949349761,
          0.0009857630357146263,
          0.0070922160521149635
        ]
      },
      "outputHidden": {
        "rows": 20,
        "columns": 20,
        "weights": [
          0.6299349069595337,
          0.6086287498474121,
          1.27516508102417,
          -0.11041344702243805,
          -0.11983387917280197,
          -0.8323653340339661,
          -0.42019352316856384,
          0.022942615672945976,
          0.0840243399143219,
          0.08166687190532684,
          -0.09000264108181,
          -0.07455866038799286,
          0.03069186769425869,
          -0.055444709956645966,
          -1.4405643939971924,
          0.19131185114383698,
          0.005317644216120243,
          3.9196717739105225,
          -1.8567500114440918,
          1.4627457857131958,
          -0.2775183618068695,
          -0.7010077238082886,
          0.6829360127449036,
          1.3570191860198975,
          -0.1494123637676239,
          0.060672346502542496,
          -0.04122413322329521,
          -0.0007950898143462837,
          3.489978075027466,
          0.36528193950653076,
          -0.04244734346866608,
          -0.028376296162605286,
          0.006296911742538214,
          0.10847019404172897,
          1.7142393589019775,
          0.19761571288108826,
          -0.11195579916238785,
          4.7164740562438965,
          -0.9529227018356323,
          -1.2358219623565674,
          -116.23302459716797,
          -73.8302230834961,
          147.72422790527344,
          -48.818214416503906,
          5.249623775482178,
          -20.095211029052734,
          110.74655151367188,
          25.880552291870117,
          -12.772543907165527,
          48.67790603637695,
          -35.172607421875,
          -7.29824686050415,
          -3.8550729751586914,
          -0.2617383599281311,
          155.53436279296875,
          -34.39909744262695,
          30.31108283996582,
          107.90119171142578,
          -9.333117485046387,
          23.030834197998047,
          1.2291291952133179,
          0.12746571004390717,
          2.8853471279144287,
          1.6253873109817505,
          0.04009237140417099,
          -0.051992353051900864,
          0.03435048460960388,
          -0.02541767619550228,
          0.8888749480247498,
          0.10911741107702255,
          0.016146035864949226,
          0.13793975114822388,
          -0.09701196849346161,
          -0.028532017022371292,
          -4.205887317657471,
          -0.12742239236831665,
          0.25109976530075073,
          2.815864324569702,
          -0.13368365168571472,
          -1.071052074432373,
          0.010297462344169617,
          -0.21174007654190063,
          2.7569077014923096,
          1.0388078689575195,
          -0.4390561282634735,
          0.0650360956788063,
          -0.10278087109327316,
          0.1289273500442505,
          -0.4143746495246887,
          -0.0350990816950798,
          -0.3380682170391083,
          0.06626982986927032,
          -0.16735537350177765,
          -0.20073652267456055,
          -3.020326614379883,
          0.002627118956297636,
          0.04470004513859749,
          -0.33325546979904175,
          -3.4041082859039307,
          0.3166411221027374,
          -0.35130468010902405,
          -0.1478765904903412,
          3.0597965717315674,
          1.0278161764144897,
          -0.034606724977493286,
          -0.21896055340766907,
          0.12231023609638214,
          0.2680579125881195,
          0.6114308834075928,
          0.12563972175121307,
          -0.13745521008968353,
          -0.00009932582906913012,
          -0.03499792516231537,
          -0.09139411896467209,
          7.158801078796387,
          -0.18335168063640594,
          -0.07936650514602661,
          -2.8979337215423584,
          0.9135019183158875,
          -0.4024145305156708,
          3.632877826690674,
          -0.17910104990005493,
          2.0635080337524414,
          0.5007266998291016,
          0.31460481882095337,
          0.35758012533187866,
          0.006132618989795446,
          -0.20995387434959412,
          0.7600144743919373,
          -0.07363063842058182,
          0.28725823760032654,
          0.3183840215206146,
          -0.08633673936128616,
          0.02090555988252163,
          -0.6252385377883911,
          0.19260624051094055,
          -0.27649030089378357,
          -0.7608429789543152,
          -1.2999234199523926,
          -1.5722309350967407,
          0.00013002072228118777,
          -0.42455101013183594,
          -3.2731337547302246,
          0.46244943141937256,
          -0.16498307883739471,
          -0.17738047242164612,
          -0.15472576022148132,
          -0.20771384239196777,
          -0.31583353877067566,
          -0.27403950691223145,
          -0.06318589299917221,
          0.04152402654290199,
          -0.09704586863517761,
          -0.18322256207466125,
          -2.2148280143737793,
          0.0657491385936737,
          0.04352172836661339,
          0.12665745615959167,
          -2.6598827838897705,
          -0.22692802548408508,
          1.4508405923843384,
          1.5841190814971924,
          2.927401304244995,
          -2.3284120559692383,
          -0.31468942761421204,
          -1.2253918647766113,
          -1.9790887832641602,
          -0.9441009759902954,
          3.0204880237579346,
          -0.28318774700164795,
          0.0543195866048336,
          -0.5531981587409973,
          -0.5793583989143372,
          1.6045411825180054,
          -8.446741104125977,
          0.2572760581970215,
          -0.16027209162712097,
          -7.299681663513184,
          0.412369042634964,
          -0.7669767737388611,
          0.15420477092266083,
          0.8628537058830261,
          -0.2745097279548645,
          0.015995467081665993,
          0.2943708598613739,
          0.25565847754478455,
          0.03508346900343895,
          -0.2690229117870331,
          0.7533880472183228,
          0.10681424289941788,
          0.20176860690116882,
          0.11546933650970459,
          -0.14110182225704193,
          0.1645103394985199,
          -0.649983286857605,
          0.17358273267745972,
          -0.2615934908390045,
          0.7231544852256775,
          -0.10458401590585709,
          -0.2782803177833557,
          -0.749417781829834,
          0.9042103290557861,
          1.3641092777252197,
          0.7638324499130249,
          -0.057364366948604584,
          -0.1040559932589531,
          0.05515676364302635,
          -1.248809814453125,
          0.14689984917640686,
          0.03917672112584114,
          -0.024358050897717476,
          0.030688686296343803,
          -0.12422169744968414,
          0.06244586780667305,
          -2.858332395553589,
          -0.03624497354030609,
          -0.11822939664125443,
          -8.00662612915039,
          1.5454778671264648,
          5.991264343261719,
          -4.893347263336182,
          -10.284013748168945,
          -44.167152404785156,
          -10.044794082641602,
          2.5092217922210693,
          15.833746910095215,
          3.8980963230133057,
          -1.6479170322418213,
          1.4581372737884521,
          2.2576115131378174,
          -0.2978111505508423,
          2.1829652786254883,
          -13.634958267211914,
          3.8519070148468018,
          13.72555160522461,
          2.340527296066284,
          -3.5013091564178467,
          1.3455259799957275,
          -8.548566818237305,
          -18.255172729492188,
          7.818464756011963,
          4.779998779296875,
          -52.37657928466797,
          -11.84188461303711,
          -0.2209758758544922,
          2.3903281688690186,
          -3.836702585220337,
          -5.758055210113525,
          -26.06209945678711,
          -0.39481034874916077,
          -9.046390533447266,
          0.41633671522140503,
          -4.5647196769714355,
          3.9248239994049072,
          2.9409492015838623,
          4.9492387771606445,
          -1.979095220565796,
          -2.5567257404327393,
          -10.413365364074707,
          -10.677090644836426,
          0.010497845709323883,
          -0.047517865896224976,
          -1.336613655090332,
          -0.45435860753059387,
          -0.05972175672650337,
          0.08078403025865555,
          0.06833218783140182,
          0.11335087567567825,
          0.24946127831935883,
          0.015327202156186104,
          -0.022703487426042557,
          -0.07936147600412369,
          0.08036641031503677,
          0.0031078432220965624,
          2.5401203632354736,
          -0.12940910458564758,
          0.07423271983861923,
          -1.8858332633972168,
          1.1100550889968872,
          0.36263006925582886,
          0.6441613435745239,
          0.7479792237281799,
          4.353022575378418,
          0.5008682608604431,
          -0.06978338956832886,
          0.04338492825627327,
          0.09777751564979553,
          0.036772117018699646,
          -0.7639638185501099,
          0.26125895977020264,
          -0.2673626244068146,
          -0.15427133440971375,
          -0.9756559133529663,
          0.2657923102378845,
          -1.4993860721588135,
          -0.19671444594860077,
          0.4974493086338043,
          2.682873249053955,
          1.1692132949829102,
          0.36072584986686707,
          -0.47084370255470276,
          0.8239116668701172,
          3.4618961811065674,
          -0.4447440505027771,
          0.06601572781801224,
          0.11698037385940552,
          0.047113195061683655,
          -0.1449958235025406,
          -0.2871945798397064,
          -0.0025973995216190815,
          0.09317973256111145,
          0.20596542954444885,
          -0.008417022414505482,
          0.37341609597206116,
          -3.2437198162078857,
          -0.15198884904384613,
          -0.1624312549829483,
          7.818820476531982,
          0.8359476327896118,
          0.5744853019714355,
          0.014338706620037556,
          1.3900704383850098,
          -2.128441095352173,
          0.05042358115315437,
          -0.06729354709386826,
          -0.03690289333462715,
          0.0490119494497776,
          -0.004483924247324467,
          0.2637336850166321,
          0.10792139172554016,
          0.0791175365447998,
          -0.07821846753358841,
          0.049041781574487686,
          0.019104592502117157,
          -12.050369262695312,
          -0.07913876324892044,
          -0.05109894275665283,
          1.703319787979126,
          -1.900212287902832,
          1.0410206317901611,
          -5.794206142425537,
          -4.153001308441162,
          1.3662395477294922,
          -2.6609113216400146,
          -0.2301425188779831,
          0.33433714509010315,
          -0.3434506356716156,
          0.9653696417808533,
          24.72566795349121,
          2.3863413333892822,
          -1.1564626693725586,
          0.07133906334638596,
          -0.5586955547332764,
          -2.386652708053589,
          4.431940078735352,
          0.13890396058559418,
          0.48058176040649414,
          -4.944839954376221,
          1.0649583339691162,
          -3.6183674335479736,
          -0.6806942224502563,
          0.09515649825334549,
          -7.313943386077881,
          0.3537072539329529,
          0.08161585032939911,
          0.15035493671894073,
          -0.053819093853235245,
          -0.003537379438057542,
          -0.2295708805322647,
          0.5443722605705261,
          0.09852693974971771,
          -0.017498645931482315,
          -0.07605631649494171,
          -0.004030352458357811,
          -1.329018473625183,
          0.22448109090328217,
          0.09865646809339523,
          0.508179247379303,
          -0.47380563616752625,
          -1.0294045209884644,
          0.25018247961997986,
          -0.568939208984375,
          3.5221190452575684,
          -1.0019928216934204,
          0.18956105411052704,
          0.37039914727211,
          0.25981226563453674,
          -0.15361542999744415,
          -1.4164483547210693,
          0.8516121506690979,
          0.16374745965003967,
          -0.22982536256313324,
          0.2982178032398224,
          0.03577429801225662,
          0.3304886817932129,
          -0.5192484259605408,
          0.3705437183380127,
          1.7477197647094727,
          2.191434144973755,
          0.5001563429832458
        ]
      },
      "outputBias": {
        "rows": 20,
        "columns": 1,
        "weights": [
          -0.18658815324306488,
          0.02309117279946804,
          -0.11585254967212677,
          0.0069821905344724655,
          -0.05546366423368454,
          -0.0165172778069973,
          -0.046845100820064545,
          0.12747304141521454,
          -0.002719045849516988,
          0.009328200481832027,
          -0.08560836315155029,
          0.07707267254590988,
          0.038480646908283234,
          -0.000258392421528697,
          -0.08550844341516495,
          0.03325079753994942,
          0.14625811576843262,
          -0.04412445053458214,
          0.03829877823591232,
          0.012287361547350883
        ]
      },
      "cellActivationMatrix": {
        "rows": 20,
        "columns": 1,
        "weights": [
          -0.059021852910518646,
          -0.011825945228338242,
          2.785548210144043,
          -0.04329186677932739,
          0.03467085212469101,
          0.038796525448560715,
          -7.420675754547119,
          -1.0549155473709106,
          -0.13898774981498718,
          -0.11843664199113846,
          0.024102097377181053,
          0.056875407695770264,
          -0.02891426719725132,
          0.06796114891767502,
          -0.02867799438536167,
          1.1695400476455688,
          -0.08450537919998169,
          0.021982373669743538,
          0.006282671354711056,
          0.015553262084722519
        ]
      },
      "cellActivationHidden": {
        "rows": 20,
        "columns": 20,
        "weights": [
          471.97100830078125,
          276.93963623046875,
          -114.9961929321289,
          -260.2189636230469,
          56.95930862426758,
          49.68489456176758,
          379.13018798828125,
          294.03851318359375,
          8.431668281555176,
          50.363059997558594,
          -19.855222702026367,
          -131.90899658203125,
          312.0022888183594,
          10.5433349609375,
          110.77317810058594,
          -219.1704559326172,
          255.41275024414062,
          459.7513122558594,
          -41.80370330810547,
          -207.0657196044922,
          -16.147825241088867,
          29.0767765045166,
          2507.330078125,
          -49.28872299194336,
          6.095530033111572,
          12.006470680236816,
          -14.199722290039062,
          -2.865391969680786,
          14.063661575317383,
          -3.2960658073425293,
          5.365974426269531,
          -1.8943018913269043,
          3.510356903076172,
          17.182907104492188,
          8.676695823669434,
          -2.559037923812866,
          14.642662048339844,
          -94.9043197631836,
          -21.492544174194336,
          1.1248080730438232,
          -5.129080295562744,
          31.02008056640625,
          1.1722352504730225,
          -2.3725457191467285,
          15.449043273925781,
          -2.616440773010254,
          -3.036839485168457,
          -1.7798473834991455,
          -1.9247280359268188,
          -5.699663162231445,
          39.263614654541016,
          -29.819580078125,
          14.629485130310059,
          27.294485092163086,
          -2.361936569213867,
          1.587583303451538,
          4.4386773109436035,
          16.227468490600586,
          -29.862802505493164,
          -39.063697814941406,
          42.63676071166992,
          -27.200868606567383,
          1.3297650814056396,
          9.08271312713623,
          7.647975921630859,
          -18.257795333862305,
          6.978633880615234,
          -34.95888137817383,
          -21.194942474365234,
          1.168471097946167,
          -19.674161911010742,
          4.706215858459473,
          -4.333835124969482,
          -9.938082695007324,
          14.23630428314209,
          -31.202762603759766,
          -44.67593002319336,
          143.017822265625,
          -7.194055557250977,
          3.331766128540039,
          -1.0166370868682861,
          -0.5917441248893738,
          2.3351569175720215,
          -2.508225202560425,
          0.13868290185928345,
          -0.5920888781547546,
          1.0656272172927856,
          1.3441493511199951,
          -4.687932968139648,
          1.3957960605621338,
          0.3814273476600647,
          -0.0408799834549427,
          1.5773444175720215,
          0.05331024155020714,
          7.544285774230957,
          -2.400266170501709,
          -0.2801375985145569,
          0.9190840721130371,
          3.5005218982696533,
          -0.35992196202278137,
          -2.4663708209991455,
          -11.91300106048584,
          7.984323024749756,
          -6.88199520111084,
          -0.5519158244132996,
          -0.6280924677848816,
          0.7675308585166931,
          1.2052173614501953,
          7.9582085609436035,
          -0.26940247416496277,
          0.7648009061813354,
          -0.18774688243865967,
          1.5156668424606323,
          -1.0456979274749756,
          5.268134117126465,
          -3.6261439323425293,
          -1.9153106212615967,
          4.737558841705322,
          -0.3564557433128357,
          3.012932300567627,
          -3.357419729232788,
          -8.179100036621094,
          -1.1037641763687134,
          7.342930316925049,
          -5.495656967163086,
          2.652601957321167,
          -3.1694271564483643,
          2.02803373336792,
          -5.171518325805664,
          2.033431053161621,
          -7.823468208312988,
          -1.178267240524292,
          -4.458438873291016,
          -3.2559051513671875,
          4.0764946937561035,
          -4.2191596031188965,
          -1.511464238166809,
          -4.6729044914245605,
          11.918726921081543,
          5.858737468719482,
          -4.418998718261719,
          -6.050808906555176,
          -8.692055702209473,
          12.987147331237793,
          2.1800899505615234,
          8.760828971862793,
          10.665143966674805,
          1.7143056392669678,
          -5.654634475708008,
          -4.243584632873535,
          4.998454570770264,
          -3.0813238620758057,
          -2.560788869857788,
          2.977379560470581,
          -6.193458557128906,
          2.554905652999878,
          0.6258276700973511,
          54.84891891479492,
          -0.6884446144104004,
          3.0565924644470215,
          -8.948549270629883,
          21.424541473388672,
          -32.20722961425781,
          1.4818474054336548,
          -12.683988571166992,
          -199.20819091796875,
          45.898311614990234,
          -68.62808227539062,
          81.73543548583984,
          -23.034643173217773,
          -85.1329574584961,
          -77.58370971679688,
          -72.95821380615234,
          -74.72789001464844,
          55.95387649536133,
          26.924440383911133,
          -23.553504943847656,
          -45.19953918457031,
          50.11470413208008,
          -10.705368995666504,
          -8.134871482849121,
          33.879150390625,
          14.508670806884766,
          66.4286880493164,
          -53.336273193359375,
          5.708542823791504,
          23.859882354736328,
          -5.354213714599609,
          1.0139068365097046,
          14.855770111083984,
          -38.03068923950195,
          35.8089599609375,
          29.66826629638672,
          0.3882420063018799,
          35.59334945678711,
          -6.855625152587891,
          21.06242561340332,
          -373.07293701171875,
          39.31187057495117,
          -59.969451904296875,
          -1.9413940906524658,
          0.5103946328163147,
          0.46272021532058716,
          1.5647330284118652,
          -0.8277006149291992,
          1.4928807020187378,
          0.653742790222168,
          -0.14159837365150452,
          -1.0985280275344849,
          0.6416863799095154,
          0.7769900560379028,
          0.08539412915706635,
          0.5776290893554688,
          -0.2825959622859955,
          2.0872678756713867,
          -0.4873882532119751,
          -0.0019940377678722143,
          1.1136057376861572,
          -2.00543212890625,
          -1.1375142335891724,
          4.012199401855469,
          -357.8259582519531,
          -144.06581115722656,
          165.90682983398438,
          -39.4470329284668,
          31.24751853942871,
          -74.39460754394531,
          -111.43370056152344,
          -304.1726379394531,
          29.817785263061523,
          -195.23907470703125,
          0.3607918620109558,
          -6.462382793426514,
          31.62966537475586,
          -11.164764404296875,
          104.30297088623047,
          178.6581268310547,
          -144.36044311523438,
          -15.618176460266113,
          212.2686004638672,
          233.36038208007812,
          155.17828369140625,
          -20.706796646118164,
          79.11680603027344,
          25.751081466674805,
          -32.623008728027344,
          220.92892456054688,
          233.6483917236328,
          64.6727294921875,
          -95.60200500488281,
          177.6075897216797,
          -80.78823852539062,
          174.53451538085938,
          -57.12685012817383,
          29.798248291015625,
          26.88164520263672,
          -92.48251342773438,
          450.92205810546875,
          35.6811637878418,
          -129.0065155029297,
          -1.8999398946762085,
          3.876722574234009,
          2.3423659801483154,
          2.312196969985962,
          -0.2950115203857422,
          1.4517364501953125,
          0.37530526518821716,
          0.0063535659573972225,
          -1.0044269561767578,
          0.19881223142147064,
          0.08801406621932983,
          -0.13915729522705078,
          0.5672917366027832,
          -0.7205245494842529,
          10.146500587463379,
          -0.46686702966690063,
          0.21798735857009888,
          -0.09585921466350555,
          -3.449739933013916,
          -5.58711576461792,
          17.932453155517578,
          -2.7653908729553223,
          7.791484832763672,
          32.29070281982422,
          9.425970077514648,
          18.12871551513672,
          11.691283226013184,
          -3.0631206035614014,
          -29.023603439331055,
          23.0186710357666,
          2.5578529834747314,
          8.272789001464844,
          5.400289535522461,
          13.310843467712402,
          -1.5278429985046387,
          -13.806982040405273,
          7.802497863769531,
          5.551468849182129,
          -4.818811416625977,
          -16.773326873779297,
          -9.94009017944336,
          -8.666756629943848,
          -4.520552635192871,
          -2.0627119541168213,
          -0.10897398740053177,
          14.300975799560547,
          -3.475728988647461,
          -2.8783199787139893,
          13.338058471679688,
          0.6286415457725525,
          2.4963021278381348,
          1.2330046892166138,
          -0.3773529529571533,
          2.2224364280700684,
          2.4138081073760986,
          -1.961130976676941,
          -6.280267238616943,
          219.26840209960938,
          10.228590965270996,
          7.05806827545166,
          -4.455261707305908,
          14.212474822998047,
          6.647855281829834,
          1.1050816774368286,
          0.8707211017608643,
          4.450947284698486,
          3.768521308898926,
          0.5274562835693359,
          6.947452068328857,
          0.48643213510513306,
          3.4561591148376465,
          -0.45673584938049316,
          0.7335081696510315,
          2.5376522541046143,
          7.552769184112549,
          0.5688526630401611,
          -1.3134421110153198,
          -22.496734619140625,
          7.3188395500183105,
          -1.7236440181732178,
          489.3287353515625,
          212.26168823242188,
          -125.67550659179688,
          2.2357676029205322,
          275.0807189941406,
          -284.64642333984375,
          322.2775573730469,
          388.5164489746094,
          89.07670593261719,
          237.05291748046875,
          -38.01506042480469,
          13.426483154296875,
          406.1839294433594,
          -171.1202850341797,
          131.01329040527344,
          56.007198333740234,
          366.7985534667969,
          172.0779266357422,
          -630.0471801757812,
          -494.5494689941406,
          -13.73913860321045,
          4.722299098968506,
          -72.57424926757812,
          -20.282560348510742,
          3.9606435298919678,
          53.87578582763672,
          -64.34659576416016,
          73.43325805664062,
          11.64267635345459,
          24.1007080078125,
          50.902347564697266,
          30.058462142944336,
          9.390707015991211,
          -6.649117469787598,
          118.56539154052734,
          -12.41605281829834,
          6.112778663635254,
          -64.38410186767578,
          -4.802411079406738,
          87.69328308105469,
          -57.84727478027344,
          13.438004493713379,
          506.7768859863281,
          -2.163379669189453,
          55.906063079833984,
          18.950021743774414,
          -100.67593383789062,
          -55.35944747924805,
          96.72037506103516,
          -12.70875072479248,
          -5.215764045715332,
          -26.948657989501953,
          -41.882774353027344,
          -76.08610534667969,
          58.55305862426758,
          72.36798095703125,
          254.15725708007812,
          -219.0081787109375,
          57.990997314453125,
          33.61874771118164
        ]
      },
      "cellActivationBias": {
        "rows": 20,
        "columns": 1,
        "weights": [
          0.04336759075522423,
          -0.03672890365123749,
          -0.05720748007297516,
          -0.03357910364866257,
          0.01821792498230934,
          0.08337666839361191,
          0.9057785868644714,
          -0.006085878703743219,
          -0.006499164272099733,
          -0.033396702259778976,
          -0.05861751735210419,
          0.03022037446498871,
          -0.1714252233505249,
          -0.0029786634258925915,
          0.12812723219394684,
          0.025534749031066895,
          -0.038172073662281036,
          -0.061966415494680405,
          0.00337378797121346,
          0.0208831038326025
        ]
      }
    }
  ],
  "outputConnector": {
    "rows": 1,
    "columns": 20,
    "weights": [
      -29.18138885498047,
      -119.46967315673828,
      64.47245025634766,
      45.15986251831055,
      -139.2735137939453,
      -137.98878479003906,
      -713.480224609375,
      -1008.7909545898438,
      177.4829559326172,
      -116.23495483398438,
      -90.12120056152344,
      -17.970487594604492,
      -162.6783447265625,
      45.220191955566406,
      -236.09564208984375,
      133.71881103515625,
      139.9097137451172,
      76.44859313964844,
      93.22892761230469,
      214.6038360595703
    ]
  },
  "output": {
    "rows": 1,
    "columns": 1,
    "weights": [
      -562.81103515625
    ]
  },
  "inputLookup": null,
  "inputLookupLength": 0,
  "outputLookup": null,
  "outputLookupLength": 0
}