{
  "type": "LSTMTimeStep",
  "options": {
    "inputSize": 1,
    "inputRange": 0,
    "hiddenLayers": [
      20
    ],
    "outputSize": 1,
    "decayRate": 0.999,
    "smoothEps": 1e-8,
    "regc": 0.000001,
    "clipval": 5,
    "maxPredictionLength": 100,
    "dataFormatter": {
      "indexTable": {},
      "characterTable": {},
      "characters": [],
      "specialIndexes": []
    }
  },
  "hiddenLayers": [
    {
      "inputMatrix": {
        "rows": 20,
        "columns": 1,
        "weights": [
          0.407828688621521,
          -0.39378100633621216,
          -0.3224000632762909,
          1.846358060836792,
          2.2173407077789307,
          -0.2983294129371643,
          2.6858839988708496,
          0.40468552708625793,
          1.1855746507644653,
          0.031672749668359756,
          0.17390665411949158,
          -0.38742825388908386,
          -0.986061692237854,
          8.287461280822754,
          -1.7071672677993774,
          -1.8306796550750732,
          -0.17683057487010956,
          -0.417797714471817,
          1.1263450384140015,
          -0.32922011613845825
        ]
      },
      "inputHidden": {
        "rows": 20,
        "columns": 20,
        "weights": [
          -5.5720109939575195,
          6.509171009063721,
          6.657380104064941,
          2.963315963745117,
          -6.092803955078125,
          6.5457234382629395,
          6.101863384246826,
          5.902649879455566,
          5.81961727142334,
          5.983644962310791,
          -5.9448957443237305,
          6.776873588562012,
          8.396295547485352,
          3.3487472534179688,
          7.538719177246094,
          -6.412298679351807,
          6.573156833648682,
          6.638517379760742,
          5.9595184326171875,
          -6.481788158416748,
          5.961037635803223,
          -6.478105545043945,
          -6.418701171875,
          -4.712098121643066,
          6.226587772369385,
          -6.328029155731201,
          -6.3145856857299805,
          -6.237094879150391,
          -6.1873650550842285,
          -6.2523345947265625,
          6.151769161224365,
          -6.477297306060791,
          -7.173166751861572,
          -4.824018955230713,
          -6.750866413116455,
          6.346625804901123,
          -6.377626895904541,
          -6.456321716308594,
          -6.105436325073242,
          6.360020160675049,
          5.982129096984863,
          -6.45818567276001,
          -6.505810737609863,
          -4.050698757171631,
          6.246927261352539,
          -6.486320972442627,
          -6.238861083984375,
          -6.092411518096924,
          -6.025882244110107,
          -6.17672872543335,
          6.121230125427246,
          -6.603789806365967,
          -7.547303199768066,
          -4.21874475479126,
          -7.143198490142822,
          6.467641830444336,
          -6.426727294921875,
          -6.576988697052002,
          -6.098101615905762,
          6.471296787261963,
          3.0783607959747314,
          11.473066329956055,
          12.117537498474121,
          -3.5954301357269287,
          2.2364845275878906,
          11.54635238647461,
          -0.7150372862815857,
          -2.6709952354431152,
          -2.9911608695983887,
          -2.236644983291626,
          2.428218126296997,
          12.28812313079834,
          12.35986042022705,
          -2.8368005752563477,
          12.490198135375977,
          -11.010191917419434,
          11.776174545288086,
          12.181058883666992,
          -2.638256311416626,
          -10.691788673400879,
          -4.445164203643799,
          6.899487018585205,
          7.218294620513916,
          0.273263543844223,
          -5.753619194030762,
          6.935179233551025,
          5.814574718475342,
          5.321052551269531,
          4.856140613555908,
          5.572756767272949,
          -5.453725814819336,
          7.4158735275268555,
          10.43741512298584,
          -0.12031402438879013,
          9.415961265563965,
          -6.855358600616455,
          6.984350681304932,
          7.290657997131348,
          5.298186302185059,
          -6.652393817901611,
          6.032989978790283,
          -6.445160388946533,
          -6.53904390335083,
          -4.691376209259033,
          6.267998218536377,
          -6.47741174697876,
          -6.3070597648620605,
          -6.090250492095947,
          -6.085535526275635,
          -6.135169506072998,
          6.172690391540527,
          -6.420975208282471,
          -7.224459171295166,
          -4.6578521728515625,
          -6.9099836349487305,
          6.452662467956543,
          -6.369040489196777,
          -6.525248050689697,
          -6.115634441375732,
          6.401651382446289,
          -5.424081325531006,
          6.665400981903076,
          6.690970420837402,
          1.6171205043792725,
          -6.161437511444092,
          6.652602195739746,
          6.164322376251221,
          5.8094024658203125,
          5.610390663146973,
          5.999545097351074,
          -5.928321838378906,
          6.940573692321777,
          8.627545356750488,
          1.6039150953292847,
          8.058367729187012,
          -6.520836353302002,
          6.65932035446167,
          6.786513328552246,
          5.862723350524902,
          -6.487395286560059,
          -5.935027122497559,
          6.513727188110352,
          6.439593315124512,
          4.145763397216797,
          -6.162423133850098,
          6.467775344848633,
          6.19746208190918,
          6.184378623962402,
          6.103055000305176,
          6.164480686187744,
          -6.222395420074463,
          6.485730171203613,
          7.368802547454834,
          5.765862941741943,
          6.882702827453613,
          -6.444746494293213,
          6.501358509063721,
          6.405253887176514,
          6.159268856048584,
          -6.442660808563232,
          -4.970625400543213,
          6.924759387969971,
          6.994635581970215,
          1.183448314666748,
          -5.9093732833862305,
          6.788790702819824,
          5.925815582275391,
          5.586373329162598,
          5.277612209320068,
          5.74531364440918,
          -5.728052616119385,
          7.1711649894714355,
          9.85062026977539,
          1.2003281116485596,
          8.900053977966309,
          -6.664977550506592,
          6.84537410736084,
          7.0245361328125,
          5.643740653991699,
          -6.7444329261779785,
          -6.212210655212402,
          2.3589248657226562,
          0.750589907169342,
          5.549016952514648,
          -6.315489768981934,
          2.5205137729644775,
          6.314377307891846,
          6.21302604675293,
          6.206249713897705,
          6.248219966888428,
          -6.185570240020752,
          -0.6946909427642822,
          -8.834733009338379,
          21.92238998413086,
          -11.561079978942871,
          -3.200901746749878,
          1.6728664636611938,
          0.047830980271101,
          6.225940227508545,
          -3.672459840774536,
          -6.135630130767822,
          1.8688408136367798,
          0.5509446263313293,
          5.080084800720215,
          -6.253246784210205,
          2.120241641998291,
          6.221514701843262,
          6.208664894104004,
          6.225855350494385,
          6.2783942222595215,
          -6.198602199554443,
          -1.0755912065505981,
          -9.456453323364258,
          21.05478286743164,
          -11.72036361694336,
          -3.0278589725494385,
          1.4452199935913086,
          -0.15955263376235962,
          6.19362735748291,
          -3.4229607582092285,
          5.568923473358154,
          -6.484679222106934,
          -6.698300361633301,
          -2.6814887523651123,
          6.130843162536621,
          -6.603748321533203,
          -6.101899147033691,
          -5.8844804763793945,
          -5.697417259216309,
          -6.031855583190918,
          5.967067718505859,
          -6.76555061340332,
          -8.575505256652832,
          -2.891964912414551,
          -7.75319766998291,
          6.561496257781982,
          -6.54621696472168,
          -6.761063098907471,
          -5.933046340942383,
          6.400218963623047,
          -4.4318013191223145,
          -10.771394729614258,
          -11.476982116699219,
          4.1651530265808105,
          -2.399745225906372,
          -10.717849731445312,
          0.5554813146591187,
          3.5188090801239014,
          4.131150722503662,
          2.9021008014678955,
          -3.1481714248657227,
          -11.894947052001953,
          -12.527328491210938,
          2.565356492996216,
          -12.471919059753418,
          10.088010787963867,
          -11.08044147491455,
          -11.694539070129395,
          3.370478630065918,
          9.71998405456543,
          -8.167505264282227,
          -3.027735710144043,
          -3.981349229812622,
          6.653337478637695,
          -10.13882064819336,
          -3.0451784133911133,
          11.412593841552734,
          9.558137893676758,
          8.75433349609375,
          10.139134407043457,
          -9.906973838806152,
          -4.590723991394043,
          -6.940036773681641,
          6.578508377075195,
          -6.74887752532959,
          2.6341655254364014,
          -3.481973171234131,
          -4.360937595367432,
          9.686785697937012,
          2.329824686050415,
          -2.004101514816284,
          -10.236454010009766,
          -11.251769065856934,
          2.9746434688568115,
          0.4699068069458008,
          -10.292386054992676,
          -1.682038426399231,
          1.0745785236358643,
          1.53300940990448,
          0.374876469373703,
          -0.6011480093002319,
          -11.56779956817627,
          -12.421113967895508,
          1.0882574319839478,
          -12.521708488464355,
          9.711030960083008,
          -10.72369384765625,
          -11.549284934997559,
          0.9020804762840271,
          9.23477840423584,
          4.143751621246338,
          -7.026171684265137,
          -7.4070940017700195,
          -0.13527245819568634,
          5.808451175689697,
          -6.946300983428955,
          -5.855373859405518,
          -5.166858196258545,
          -4.7058281898498535,
          -5.347024440765381,
          5.289024353027344,
          -7.7112250328063965,
          -10.889361381530762,
          0.12410170584917068,
          -9.776620864868164,
          6.833758354187012,
          -7.0997490882873535,
          -7.519995212554932,
          -5.188304424285889,
          6.795716762542725,
          6.197739601135254,
          -6.34150505065918,
          -6.306799411773682,
          -5.664546012878418,
          6.275165557861328,
          -6.402052879333496,
          -6.313211917877197,
          -6.273301124572754,
          -6.172818660736084,
          -6.334493160247803,
          6.2177605628967285,
          -6.449674606323242,
          -6.736151218414307,
          -5.745900630950928,
          -6.514791011810303,
          6.422606945037842,
          -6.280467987060547,
          -6.328669548034668,
          -6.20372200012207,
          6.318285942077637,
          5.6655378341674805,
          -6.5146894454956055,
          -6.629599094390869,
          -2.9323768615722656,
          6.1712236404418945,
          -6.567663192749023,
          -6.21458101272583,
          -5.984388828277588,
          -5.800168037414551,
          -5.985980033874512,
          6.057070255279541,
          -6.738665580749512,
          -8.318995475769043,
          -3.2189080715179443,
          -7.620187282562256,
          6.512345314025879,
          -6.553954601287842,
          -6.68026876449585,
          -6.020204067230225,
          6.460324764251709,
          -5.521921634674072,
          6.624543190002441,
          6.59041166305542,
          2.3516621589660645,
          -6.1838812828063965,
          6.679728984832764,
          6.150692462921143,
          5.9277753829956055,
          5.75032377243042,
          5.915802478790283,
          -5.919476509094238,
          6.800631999969482,
          8.45956039428711,
          2.5922577381134033,
          7.9070725440979,
          -6.473959445953369,
          6.715415000915527,
          6.660567283630371,
          5.936006546020508,
          -6.512904644012451,
          6.122726917266846,
          -6.331932067871094,
          -6.449006080627441,
          -5.536167621612549,
          6.279839038848877,
          -6.332472801208496,
          -6.255336761474609,
          -6.260715961456299,
          -6.144903182983398,
          -6.2885894775390625,
          6.192234039306641,
          -6.391467094421387,
          -6.700390815734863,
          -5.49106502532959,
          -6.63486385345459,
          6.2971320152282715,
          -6.370401859283447,
          -6.340722560882568,
          -6.293356895446777,
          6.345681667327881
        ]
      },
      "inputBias": {
        "rows": 20,
        "columns": 1,
        "weights": [
          -3.7205424308776855,
          3.9473676681518555,
          3.769477128982544,
          -3.4095094203948975,
          -5.733885288238525,
          3.94240403175354,
          -3.9779136180877686,
          -3.849600315093994,
          -3.78582763671875,
          -3.8726377487182617,
          -3.84330677986145,
          3.5992002487182617,
          5.578927516937256,
          -4.892526626586914,
          2.9131734371185303,
          4.0685038566589355,
          3.84466552734375,
          3.6864707469940186,
          -3.8453781604766846,
          4.025571823120117
        ]
      },
      "forgetMatrix": {
        "rows": 20,
        "columns": 1,
        "weights": [
          4.925057888031006,
          -0.36285367608070374,
          -0.9535478949546814,
          4.198002815246582,
          6.249663829803467,
          -0.8523228764533997,
          6.27156400680542,
          4.80450439453125,
          3.11804461479187,
          1.1287426948547363,
          3.569730043411255,
          -1.7635236978530884,
          -6.952145576477051,
          2.3232316970825195,
          -6.717314720153809,
          -6.304147243499756,
          -0.559575080871582,
          -1.7308374643325806,
          6.353210926055908,
          -0.22717051208019257
        ]
      },
      "forgetHidden": {
        "rows": 20,
        "columns": 20,
        "weights": [
          -4.496789455413818,
          7.221714019775391,
          7.267372131347656,
          -0.6224957704544067,
          -5.897037029266357,
          7.064872741699219,
          5.902624607086182,
          5.327014446258545,
          4.658845901489258,
          5.541282653808594,
          -5.485476493835449,
          7.534139633178711,
          9.918004035949707,
          -0.9896638989448547,
          9.404304504394531,
          -6.89309024810791,
          7.124838352203369,
          7.175553798675537,
          5.379935264587402,
          -6.912439346313477,
          6.30055570602417,
          -6.299009323120117,
          -6.351657390594482,
          -5.891105651855469,
          6.232560634613037,
          -6.337310314178467,
          -6.233442783355713,
          -6.289941310882568,
          -6.2709503173828125,
          -6.3073201179504395,
          6.276749610900879,
          -6.29768180847168,
          -6.51537561416626,
          -5.9604172706604,
          -6.4885053634643555,
          6.304675102233887,
          -6.374607563018799,
          -6.425973415374756,
          -6.309280872344971,
          6.362880229949951,
          5.8887858390808105,
          -6.508580207824707,
          -6.418051242828369,
          -4.171308994293213,
          6.235151290893555,
          -6.4019551277160645,
          -6.2438273429870605,
          -6.160699844360352,
          -5.977603435516357,
          -6.228561878204346,
          6.171518325805664,
          -6.606358528137207,
          -7.510333061218262,
          -4.14393949508667,
          -7.00288200378418,
          6.477413654327393,
          -6.4783549308776855,
          -6.555619716644287,
          -6.130797863006592,
          6.373489856719971,
          -0.3142605423927307,
          10.136737823486328,
          11.11405086517334,
          -1.8107737302780151,
          -2.9870173931121826,
          10.142105102539062,
          3.1894359588623047,
          1.158120036125183,
          0.6548373103141785,
          1.6823844909667969,
          -1.555530309677124,
          11.503182411193848,
          11.780046463012695,
          -2.850604772567749,
          12.133551597595215,
          -9.591419219970703,
          10.667933464050293,
          11.344788551330566,
          1.3143863677978516,
          -9.157193183898926,
          -3.4143292903900146,
          7.166862964630127,
          7.302629470825195,
          -1.8532806634902954,
          -5.520083427429199,
          7.079622268676758,
          5.648764610290527,
          4.825423240661621,
          4.011384963989258,
          5.058104515075684,
          -5.00028657913208,
          7.482019424438477,
          6.784215450286865,
          -1.3569940328598022,
          7.613158226013184,
          -6.993637561798096,
          7.205934047698975,
          7.3211588859558105,
          4.8568315505981445,
          -6.823404312133789,
          6.188075542449951,
          -6.370386600494385,
          -6.416986465454102,
          -5.097622394561768,
          6.345322608947754,
          -6.385082244873047,
          -6.242655277252197,
          -6.173785209655762,
          -6.12409782409668,
          -6.278623580932617,
          6.177238941192627,
          -6.478471279144287,
          -6.882894515991211,
          -4.962287425994873,
          -6.742015838623047,
          6.343995094299316,
          -6.40278434753418,
          -6.500027656555176,
          -6.172675132751465,
          6.315269947052002,
          -5.4571123123168945,
          6.4930949211120605,
          6.587910175323486,
          1.1555265188217163,
          -6.090218544006348,
          6.571835517883301,
          6.1122355461120605,
          5.985813140869141,
          5.569131851196289,
          6.068352222442627,
          -5.899619102478027,
          6.672173023223877,
          6.608203411102295,
          0.8721780776977539,
          6.869117736816406,
          -6.467149257659912,
          6.499762535095215,
          6.639298915863037,
          5.894614219665527,
          -6.445666313171387,
          -5.343369007110596,
          6.881453514099121,
          6.815718173980713,
          0.8635132908821106,
          -6.070861339569092,
          6.702967166900635,
          6.046969413757324,
          5.718348026275635,
          5.390934467315674,
          5.937350749969482,
          -5.875601768493652,
          6.904467582702637,
          8.452780723571777,
          0.5238093137741089,
          8.124652862548828,
          -6.578650951385498,
          6.672220230102539,
          6.863013744354248,
          5.7672343254089355,
          -6.633510589599609,
          -5.268320083618164,
          6.644794464111328,
          6.826526165008545,
          1.2753245830535889,
          -5.996804714202881,
          6.598757743835449,
          6.103553771972656,
          5.806751728057861,
          5.465911865234375,
          5.906294822692871,
          -5.801582336425781,
          6.8951520919799805,
          8.753232955932617,
          0.91408371925354,
          8.062764167785645,
          -6.632421970367432,
          6.790797710418701,
          6.766472339630127,
          5.79166316986084,
          -6.592972278594971,
          -6.171592712402344,
          6.347035884857178,
          6.472420692443848,
          4.850711822509766,
          -6.272909164428711,
          6.338207721710205,
          6.317850589752197,
          6.146836280822754,
          6.086673259735107,
          6.146035671234131,
          -6.158463954925537,
          6.468069076538086,
          7.000054359436035,
          4.666177749633789,
          6.826040267944336,
          -6.3477983474731445,
          6.365307331085205,
          6.364118576049805,
          6.160809516906738,
          -6.419876575469971,
          -5.756758689880371,
          6.635368824005127,
          6.669646263122559,
          2.2571299076080322,
          -6.145551681518555,
          6.504936218261719,
          6.082941055297852,
          6.05808687210083,
          5.73527193069458,
          5.975372314453125,
          -6.017719745635986,
          6.664069175720215,
          7.790252208709717,
          2.0402519702911377,
          7.564723968505859,
          -6.550305366516113,
          6.65583610534668,
          6.547676086425781,
          6.10740852355957,
          -6.4707489013671875,
          5.316372394561768,
          -6.712409019470215,
          -6.693021297454834,
          -1.8736727237701416,
          6.140025615692139,
          -6.596922397613525,
          -6.074815273284912,
          -5.782683849334717,
          -5.5978240966796875,
          -5.847048759460449,
          5.84324312210083,
          -6.843644142150879,
          -8.773523330688477,
          -1.865682601928711,
          -8.072366714477539,
          6.599843502044678,
          -6.64366340637207,
          -6.807052135467529,
          -5.844679832458496,
          6.597362995147705,
          5.617488861083984,
          -12.10725212097168,
          -12.188802719116211,
          3.853646755218506,
          6.942698001861572,
          -12.120451927185059,
          -6.6480865478515625,
          -5.925233840942383,
          -5.743291854858398,
          -6.159689426422119,
          6.084822177886963,
          -12.29880142211914,
          -4.345313549041748,
          10.770445823669434,
          -5.55025053024292,
          11.822010040283203,
          -12.189871788024902,
          -12.230926513671875,
          -6.0016093254089355,
          11.803915023803711,
          8.88697624206543,
          7.344212055206299,
          7.191233158111572,
          -3.665358066558838,
          8.344940185546875,
          7.344571590423584,
          -7.679676532745361,
          -8.629209518432617,
          -8.804038047790527,
          -8.427581787109375,
          8.538126945495605,
          6.928478240966797,
          11.549285888671875,
          2.7249090671539307,
          6.554080486297607,
          -7.68993616104126,
          7.2557454109191895,
          7.00069522857666,
          -8.536823272705078,
          -7.963585376739502,
          5.932409763336182,
          -11.22712516784668,
          -11.688790321350098,
          3.8269472122192383,
          8.088000297546387,
          -11.226491928100586,
          -8.02292251586914,
          -6.559667110443115,
          -6.263780117034912,
          -6.940696716308594,
          6.85029935836792,
          -12.007506370544434,
          -4.096709251403809,
          10.801911354064941,
          -5.105667591094971,
          10.666576385498047,
          -11.408272743225098,
          -11.813901901245117,
          -6.644240379333496,
          10.3082275390625,
          3.858654260635376,
          -7.012676239013672,
          -7.41426944732666,
          1.4588544368743896,
          5.712549686431885,
          -7.0729079246521,
          -5.818476676940918,
          -5.001951694488525,
          -4.505104064941406,
          -5.211772918701172,
          5.136273384094238,
          -7.647434234619141,
          -9.046794891357422,
          1.4370979070663452,
          -9.081694602966309,
          6.8883161544799805,
          -7.265384197235107,
          -7.405102729797363,
          -5.0242533683776855,
          6.827587127685547,
          6.252079963684082,
          -6.386013507843018,
          -6.429427623748779,
          -5.661477088928223,
          6.225701332092285,
          -6.41664981842041,
          -6.282841682434082,
          -6.245621681213379,
          -6.248935699462891,
          -6.291001796722412,
          6.26080846786499,
          -6.3876543045043945,
          -6.606120586395264,
          -5.55875301361084,
          -6.47926664352417,
          6.323472499847412,
          -6.407948017120361,
          -6.398090839385986,
          -6.314634323120117,
          6.336555004119873,
          5.5900678634643555,
          -6.6550140380859375,
          -6.670318126678467,
          -2.2281882762908936,
          6.199954986572266,
          -6.634680271148682,
          -6.076647758483887,
          -5.856839656829834,
          -5.666902542114258,
          -5.922405242919922,
          6.006674289703369,
          -6.871580600738525,
          -8.53707218170166,
          -2.090083360671997,
          -7.893822193145752,
          6.5160980224609375,
          -6.625011920928955,
          -6.696599006652832,
          -5.957389831542969,
          6.463461875915527,
          -5.111730575561523,
          7.042097568511963,
          6.885425090789795,
          -0.01220928318798542,
          -5.955759048461914,
          6.900108814239502,
          5.990614891052246,
          5.684220314025879,
          5.147531509399414,
          5.851344585418701,
          -5.742847442626953,
          6.981078147888184,
          8.359007835388184,
          0.005928208585828543,
          8.258021354675293,
          -6.730732440948486,
          6.796506404876709,
          6.811492443084717,
          5.755736827850342,
          -6.7498626708984375,
          6.282913684844971,
          -6.398346424102783,
          -6.311569690704346,
          -6.105970859527588,
          6.275465488433838,
          -6.274503231048584,
          -6.262783527374268,
          -6.251716136932373,
          -6.326066493988037,
          -6.294595241546631,
          6.359794616699219,
          -6.333995819091797,
          -6.3406476974487305,
          -6.187714576721191,
          -6.318416595458984,
          6.364157676696777,
          -6.299088954925537,
          -6.402563095092773,
          -6.271026134490967,
          6.336857318878174
        ]
      },
      "forgetBias": {
        "rows": 20,
        "columns": 1,
        "weights": [
          0,
          0,
          0,
          0,
          0,
          0,
          0,
          0,
          0,
          0,
          0,
          0,
          0,
          0,
          0,
          0,
          0,
          0,
          0,
          0
        ]
      },
      "outputMatrix": {
        "rows": 20,
        "columns": 1,
        "weights": [
          0.28973856568336487,
          -0.07702158391475677,
          -0.40809181332588196,
          0.7423056960105896,
          4.9737868309021,
          -0.19461585581302643,
          0.5285954475402832,
          0.13232780992984772,
          0.15117135643959045,
          0.23282435536384583,
          0.11726822704076767,
          -1.3065857887268066,
          -1.3594722747802734,
          10.594749450683594,
          -4.873072624206543,
          -1.2532460689544678,
          -0.1258220374584198,
          -0.49066829681396484,
          0.14094720780849457,
          -0.17041568458080292
        ]
      },
      "outputHidden": {
        "rows": 20,
        "columns": 20,
        "weights": [
          -5.524219512939453,
          6.683394432067871,
          6.714911460876465,
          2.4994685649871826,
          -6.0707621574401855,
          6.665310859680176,
          6.097214698791504,
          5.83044958114624,
          5.6340837478637695,
          5.983845233917236,
          -6.014881134033203,
          6.804500579833984,
          8.741138458251953,
          2.6764988899230957,
          7.846584796905518,
          -6.567902565002441,
          6.626689434051514,
          6.715128421783447,
          5.9782938957214355,
          -6.517691135406494,
          6.112745761871338,
          -6.319272994995117,
          -6.371853828430176,
          -5.606675624847412,
          6.301798343658447,
          -6.33596134185791,
          -6.278010368347168,
          -6.244257926940918,
          -6.2097649574279785,
          -6.342050552368164,
          6.327264785766602,
          -6.317041397094727,
          -6.6571044921875,
          -5.641653537750244,
          -6.606770992279053,
          6.326037883758545,
          -6.436934947967529,
          -6.428976535797119,
          -6.256848335266113,
          6.264676570892334,
          5.106451034545898,
          -6.85725212097168,
          -6.926844596862793,
          -1.4207342863082886,
          5.974977493286133,
          -6.747081756591797,
          -5.927313327789307,
          -5.601480007171631,
          -5.259352684020996,
          -5.75838041305542,
          5.660722732543945,
          -7.078404426574707,
          -9.810295104980469,
          -1.4945629835128784,
          -8.769015312194824,
          6.721950531005859,
          -6.897336006164551,
          -6.984284400939941,
          -5.643270492553711,
          6.693664073944092,
          6.226767539978027,
          12.393404960632324,
          12.423548698425293,
          -7.591620445251465,
          5.578268527984619,
          12.350662231445312,
          -5.596219539642334,
          -5.987768650054932,
          -6.20456075668335,
          -6.066267490386963,
          5.949944019317627,
          12.480632781982422,
          12.171079635620117,
          -8.562939643859863,
          12.462422370910645,
          -12.088895797729492,
          12.340824127197266,
          12.495905876159668,
          -6.079721927642822,
          -12.085644721984863,
          -2.5008559226989746,
          7.952952861785889,
          8.323760032653809,
          -1.7212929725646973,
          -5.1309709548950195,
          7.789708137512207,
          5.313511371612549,
          4.08494234085083,
          3.2035634517669678,
          4.41471529006958,
          -4.325110912322998,
          8.850685119628906,
          11.145051956176758,
          -2.454623222351074,
          11.07839298248291,
          -7.5266594886779785,
          7.988790988922119,
          8.349222183227539,
          4.227584362030029,
          -7.467800617218018,
          5.914381980895996,
          -6.356813907623291,
          -6.449078559875488,
          -4.1162238121032715,
          6.178692817687988,
          -6.486424922943115,
          -6.218780040740967,
          -6.101626873016357,
          -6.012203216552734,
          -6.131011009216309,
          6.107208251953125,
          -6.542654991149902,
          -7.663119792938232,
          -4.156219005584717,
          -7.085854530334473,
          6.436501502990723,
          -6.394756317138672,
          -6.534206867218018,
          -6.0629777908325195,
          6.362307071685791,
          -5.95971155166626,
          6.343880653381348,
          6.390058517456055,
          4.085621356964111,
          -6.296430587768555,
          6.412309646606445,
          6.255801677703857,
          6.155191421508789,
          5.9994282722473145,
          6.150743007659912,
          -6.076019287109375,
          6.461843013763428,
          7.253944396972656,
          6.669543743133545,
          6.8194146156311035,
          -6.415217876434326,
          6.432561874389648,
          6.437224864959717,
          6.053966522216797,
          -6.456080913543701,
          -6.101361274719238,
          6.37681770324707,
          6.3569254875183105,
          4.73667049407959,
          -6.195995330810547,
          6.340510845184326,
          6.249835014343262,
          6.237368106842041,
          6.13136625289917,
          6.128256797790527,
          -6.214787483215332,
          6.426523685455322,
          6.931915283203125,
          6.857769966125488,
          6.662106513977051,
          -6.384448528289795,
          6.445858478546143,
          6.358954429626465,
          6.244070053100586,
          -6.383945941925049,
          -5.91183614730835,
          6.524179935455322,
          6.56493616104126,
          3.910815954208374,
          -6.2190728187561035,
          6.467655658721924,
          6.2784624099731445,
          6.001279354095459,
          6.0174078941345215,
          6.092456340789795,
          -6.057138442993164,
          6.576571941375732,
          7.7378950119018555,
          4.496502876281738,
          7.069700717926025,
          -6.36793851852417,
          6.426477432250977,
          6.497094631195068,
          6.158376693725586,
          -6.426458835601807,
          -6.08856725692749,
          6.37963342666626,
          6.368833065032959,
          5.020029067993164,
          -6.192080974578857,
          6.393784523010254,
          6.2892022132873535,
          6.201375484466553,
          6.121280193328857,
          6.222468376159668,
          -6.166884422302246,
          6.45127010345459,
          6.820381164550781,
          6.555235862731934,
          6.707364082336426,
          -6.424667835235596,
          6.4406657218933105,
          6.42534065246582,
          6.161871433258057,
          -6.365273475646973,
          -6.110976219177246,
          6.407960414886475,
          6.442203998565674,
          5.228708744049072,
          -6.242953300476074,
          6.425541877746582,
          6.2888922691345215,
          6.201016902923584,
          6.191908836364746,
          6.273539066314697,
          -6.302601337432861,
          6.431177616119385,
          6.785462379455566,
          7.10514497756958,
          6.610300064086914,
          -6.3930439949035645,
          6.35266637802124,
          6.421116828918457,
          6.164100170135498,
          -6.306997299194336,
          1.9427516460418701,
          -8.642769813537598,
          -8.861495971679688,
          0.21843601763248444,
          4.858657360076904,
          -8.479536056518555,
          -4.818866729736328,
          -3.499812602996826,
          -2.5369203090667725,
          -4.013607025146484,
          3.849693536758423,
          -9.481029510498047,
          -12.290148735046387,
          0.47460854053497314,
          -11.907881736755371,
          7.912589073181152,
          -8.574411392211914,
          -9.073933601379395,
          -3.6591644287109375,
          7.862100124359131,
          -2.1164844036102295,
          -12.035287857055664,
          -12.284980773925781,
          10.459249496459961,
          -1.9486645460128784,
          -12.04354190826416,
          1.0828182697296143,
          2.0524449348449707,
          2.1676127910614014,
          1.7414028644561768,
          -1.8566702604293823,
          -12.464766502380371,
          -10.800403594970703,
          5.538424015045166,
          -12.619181632995605,
          11.674176216125488,
          -12.261211395263672,
          -12.443476676940918,
          1.9474366903305054,
          11.538250923156738,
          -8.524678230285645,
          5.0949835777282715,
          4.28142786026001,
          6.657104969024658,
          -10.531343460083008,
          5.136720180511475,
          11.574880599975586,
          9.893453598022461,
          9.10167407989502,
          10.403145790100098,
          -10.252504348754883,
          3.719614267349243,
          1.0329456329345703,
          -5.505426406860352,
          1.5974953174591064,
          -5.683809280395508,
          4.821515083312988,
          4.043177127838135,
          9.997950553894043,
          -5.860694408416748,
          5.586091041564941,
          -12.375861167907715,
          -12.493016242980957,
          2.025224208831787,
          5.560008525848389,
          -12.4264554977417,
          -6.0582098960876465,
          -5.650853157043457,
          -5.598052978515625,
          -5.821036338806152,
          5.786103248596191,
          -12.550936698913574,
          -5.781980991363525,
          8.745092391967773,
          -6.104170799255371,
          12.226716041564941,
          -12.490675926208496,
          -12.437276840209961,
          -5.647977352142334,
          12.088102340698242,
          4.076412677764893,
          -7.1154704093933105,
          -7.41595983505249,
          -0.39122769236564636,
          5.738819122314453,
          -7.084627628326416,
          -5.810397148132324,
          -5.078318119049072,
          -4.610117435455322,
          -5.295471668243408,
          5.225022792816162,
          -7.641346454620361,
          -11.088279724121094,
          -0.1394020915031433,
          -9.882353782653809,
          6.9444708824157715,
          -7.232335090637207,
          -7.573948860168457,
          -5.165645122528076,
          6.812123775482178,
          6.092323303222656,
          -6.430339336395264,
          -6.344298362731934,
          -5.0633931159973145,
          6.303367614746094,
          -6.408452987670898,
          -6.20205020904541,
          -6.249791145324707,
          -6.1296467781066895,
          -6.229278087615967,
          6.216989994049072,
          -6.383303165435791,
          -7.046814918518066,
          -5.203657627105713,
          -6.755405902862549,
          6.309968948364258,
          -6.34274959564209,
          -6.386220455169678,
          -6.229755401611328,
          6.338095664978027,
          4.557775497436523,
          -7.074800968170166,
          -7.129899501800537,
          -0.7425651550292969,
          5.794066429138184,
          -6.940700054168701,
          -5.911545753479004,
          -5.366728782653809,
          -4.865535259246826,
          -5.46944522857666,
          5.474143981933594,
          -7.471540451049805,
          -10.581119537353516,
          -0.8400300145149231,
          -9.608511924743652,
          6.822188377380371,
          -7.079189777374268,
          -7.303605079650879,
          -5.429181098937988,
          6.776442050933838,
          -5.987005710601807,
          6.337363243103027,
          6.403238773345947,
          4.622150421142578,
          -6.290503025054932,
          6.330582141876221,
          6.194247722625732,
          6.143611907958984,
          6.047260761260986,
          6.257362365722656,
          -6.168715000152588,
          6.5088114738464355,
          7.083181858062744,
          6.055980205535889,
          6.891730785369873,
          -6.393423557281494,
          6.403618335723877,
          6.505077838897705,
          6.160803318023682,
          -6.442068576812744,
          6.189696311950684,
          -6.363761901855469,
          -6.411282539367676,
          -5.348258972167969,
          6.344003200531006,
          -6.324437618255615,
          -6.309988498687744,
          -6.166656494140625,
          -6.23962926864624,
          -6.236805438995361,
          6.261592864990234,
          -6.48948860168457,
          -6.912838459014893,
          -5.384367942810059,
          -6.688249111175537,
          6.439457416534424,
          -6.440722942352295,
          -6.372588157653809,
          -6.244847774505615,
          6.347212314605713
        ]
      },
      "outputBias": {
        "rows": 20,
        "columns": 1,
        "weights": [
          -3.165904998779297,
          3.3261804580688477,
          3.008819818496704,
          -2.9015748500823975,
          -5.427989482879639,
          3.370440721511841,
          -3.385035753250122,
          -3.275719404220581,
          -3.2214577198028564,
          -3.295314073562622,
          -3.2703592777252197,
          2.5709967613220215,
          5.9251508712768555,
          -4.660465717315674,
          -3.2733139991760254,
          3.582415819168091,
          3.1553378105163574,
          2.8267605304718018,
          -3.272129535675049,
          3.5417697429656982
        ]
      },
      "cellActivationMatrix": {
        "rows": 20,
        "columns": 1,
        "weights": [
          -0.36236074566841125,
          -0.005401100497692823,
          -0.4492575228214264,
          0.03685074299573898,
          -6.360414028167725,
          -0.06035328283905983,
          2.127406597137451,
          0.5113648176193237,
          0.09711581468582153,
          0.36871689558029175,
          -0.5191906690597534,
          -0.162591353058815,
          -0.23308061063289642,
          0.5708491802215576,
          -0.15886849164962769,
          2.810382127761841,
          -0.10313442349433899,
          -0.9747565388679504,
          0.9801134467124939,
          0.013002639636397362
        ]
      },
      "cellActivationHidden": {
        "rows": 20,
        "columns": 20,
        "weights": [
          6.358160972595215,
          -6.260993003845215,
          -6.310242176055908,
          -6.2823967933654785,
          6.2533793449401855,
          -6.248300552368164,
          -6.346044540405273,
          -6.318288803100586,
          -6.24476432800293,
          -6.269206523895264,
          6.32660436630249,
          -6.309082508087158,
          -6.3107099533081055,
          -6.281421184539795,
          -6.3066020011901855,
          6.239622116088867,
          -6.327206611633301,
          -6.296630382537842,
          -6.336572647094727,
          6.289714336395264,
          6.348518371582031,
          -2.0167288780212402,
          -3.136300563812256,
          -6.356540679931641,
          2.725421667098999,
          -1.9983394145965576,
          -1.5720067024230957,
          -3.5203490257263184,
          -4.810630798339844,
          -2.7482149600982666,
          2.983675479888916,
          -3.799609899520874,
          -6.318093299865723,
          -6.341182708740234,
          -6.362694263458252,
          1.7225347757339478,
          -2.5302467346191406,
          -3.4766836166381836,
          -3.3206770420074463,
          1.417724609375,
          6.333266735076904,
          -6.27135705947876,
          -6.239465236663818,
          -6.333773136138916,
          6.346755027770996,
          -6.27071475982666,
          -6.3711957931518555,
          -6.318975925445557,
          -6.368288516998291,
          -6.389664649963379,
          6.360618591308594,
          -6.381745338439941,
          -6.285901069641113,
          -6.28761100769043,
          -6.2451300621032715,
          6.295524597167969,
          -6.249853134155273,
          -6.288610458374023,
          -6.388899803161621,
          6.348971366882324,
          -6.387460231781006,
          4.704333782196045,
          6.351161003112793,
          6.238163948059082,
          -5.672708511352539,
          4.539493560791016,
          3.276380777359009,
          6.276625633239746,
          6.313330173492432,
          5.89420747756958,
          -6.299117565155029,
          6.327281951904297,
          6.351261615753174,
          6.2841081619262695,
          6.329805850982666,
          -3.5446791648864746,
          5.365177154541016,
          6.245094299316406,
          6.375439167022705,
          -3.0004892349243164,
          2.284452438354492,
          -9.502057075500488,
          -8.696781158447266,
          2.5387086868286133,
          5.082361698150635,
          -8.805625915527344,
          -4.796840190887451,
          -3.757997989654541,
          -2.14399790763855,
          -4.070313453674316,
          4.044869422912598,
          -9.595037460327148,
          -11.100021362304688,
          3.1650278568267822,
          -11.12485408782959,
          7.92764949798584,
          -8.666583061218262,
          -8.714582443237305,
          -4.032736301422119,
          8.572490692138672,
          6.385473251342773,
          -6.323085308074951,
          -6.3013200759887695,
          -6.383638858795166,
          6.3226494789123535,
          -6.28357458114624,
          -6.357295036315918,
          -6.26679801940918,
          -6.333675861358643,
          -6.3917670249938965,
          6.303042411804199,
          -6.397963523864746,
          -6.3299384117126465,
          -6.353704929351807,
          -6.243677616119385,
          6.248690605163574,
          -6.308503150939941,
          -6.324088096618652,
          -6.38731575012207,
          6.263847351074219,
          -6.241318225860596,
          6.335277080535889,
          6.336066246032715,
          6.037189960479736,
          -6.311519622802734,
          6.24893045425415,
          6.3089518547058105,
          6.367185115814209,
          6.379525184631348,
          6.383508205413818,
          -6.348060131072998,
          6.264865875244141,
          6.325747013092041,
          5.655857563018799,
          6.225269317626953,
          -6.340093612670898,
          6.261598110198975,
          6.275513648986816,
          6.245325565338135,
          -6.3748273849487305,
          -6.354930400848389,
          6.280928134918213,
          6.397551536560059,
          6.326030254364014,
          -6.342133522033691,
          6.392297267913818,
          6.336673736572266,
          6.346537113189697,
          6.311418533325195,
          6.327340602874756,
          -6.256129741668701,
          6.390149116516113,
          6.354919910430908,
          6.3034539222717285,
          6.337111949920654,
          -6.299448013305664,
          6.277222633361816,
          6.252829551696777,
          6.246608257293701,
          -6.308793067932129,
          -6.253916263580322,
          6.331223487854004,
          6.333435535430908,
          6.35939884185791,
          -6.382461071014404,
          6.320051193237305,
          6.391690254211426,
          6.293846130371094,
          6.353297233581543,
          6.294592380523682,
          -6.25602912902832,
          6.333184242248535,
          6.258504867553711,
          6.353873252868652,
          6.351611137390137,
          -6.32280158996582,
          6.365944862365723,
          6.248723030090332,
          6.377915382385254,
          -6.274377822875977,
          -6.308965682983398,
          6.383552074432373,
          6.31414270401001,
          6.231653213500977,
          -6.329833984375,
          6.332728862762451,
          6.379424095153809,
          6.3587117195129395,
          6.295363426208496,
          6.388307571411133,
          -6.391928672790527,
          6.381433010101318,
          6.333649158477783,
          6.321809768676758,
          6.352637767791748,
          -6.304505825042725,
          6.365542888641357,
          6.306502342224121,
          6.385982036590576,
          -6.263427257537842,
          6.340691089630127,
          -6.246305465698242,
          -6.342703819274902,
          -6.357438087463379,
          6.357996940612793,
          -6.318226337432861,
          -6.391441345214844,
          -6.294859409332275,
          -6.253924369812012,
          -6.376683235168457,
          6.3206868171691895,
          -6.280846118927002,
          -6.355257511138916,
          -6.253960132598877,
          -6.370019912719727,
          6.371349334716797,
          -6.383301734924316,
          -6.252832889556885,
          -6.322414875030518,
          6.255334377288818,
          6.371929168701172,
          -6.26149320602417,
          -6.2378950119018555,
          -6.383515357971191,
          6.24554443359375,
          -6.363125324249268,
          -6.387507915496826,
          -6.338152885437012,
          -6.327663421630859,
          -6.358776569366455,
          6.367156028747559,
          -6.369932174682617,
          -6.342092037200928,
          -6.259631156921387,
          -6.307282447814941,
          6.26087760925293,
          -6.247028827667236,
          -6.3534016609191895,
          -6.389987468719482,
          6.2483696937561035,
          6.369326114654541,
          -6.337984561920166,
          -6.336898326873779,
          -6.383713245391846,
          6.268085956573486,
          -6.27877950668335,
          -6.387430667877197,
          -6.299787521362305,
          -6.28585958480835,
          -6.377543926239014,
          6.320263862609863,
          -6.386213779449463,
          -6.327329158782959,
          -6.369603157043457,
          -6.328845500946045,
          6.35512638092041,
          -6.356896877288818,
          -6.339164733886719,
          -6.304459571838379,
          6.324793815612793,
          0.0680360421538353,
          12.41623592376709,
          12.573163986206055,
          -4.789492130279541,
          -0.2799704968929291,
          12.4271240234375,
          0.16164076328277588,
          -0.05194597691297531,
          -0.07975613325834274,
          -0.020878106355667114,
          -0.030538642778992653,
          12.616313934326172,
          7.147444248199463,
          -2.3860254287719727,
          12.67795467376709,
          -12.40147876739502,
          12.583001136779785,
          12.590222358703613,
          0.016307879239320755,
          -12.382460594177246,
          6.277401447296143,
          -6.321841239929199,
          -6.259628772735596,
          -6.434499740600586,
          6.241334438323975,
          -6.349210739135742,
          -6.368207931518555,
          -6.378933906555176,
          -6.329139709472656,
          -6.352291584014893,
          6.325570583343506,
          -6.296587944030762,
          -6.269938945770264,
          -6.301076412200928,
          -6.330766677856445,
          6.338358402252197,
          -6.38672399520874,
          -6.318098545074463,
          -6.316965579986572,
          6.36944055557251,
          -7.751504898071289,
          5.278347492218018,
          5.558215141296387,
          10.883715629577637,
          -6.648303985595703,
          5.582155704498291,
          6.774503231048584,
          7.036230564117432,
          7.716370105743408,
          7.031078338623047,
          -6.945005893707275,
          5.159584999084473,
          2.409691333770752,
          9.88877010345459,
          2.895087718963623,
          -5.909985542297363,
          5.6028900146484375,
          5.627216815948486,
          6.973984718322754,
          -5.631496429443359,
          6.322987079620361,
          -6.290809154510498,
          -6.27346134185791,
          -6.327065467834473,
          6.333171844482422,
          -6.300520896911621,
          -6.268355846405029,
          -6.337588787078857,
          -6.30810022354126,
          -6.349945545196533,
          6.285071849822998,
          -6.366604804992676,
          -6.369048118591309,
          -6.236056327819824,
          -6.254859447479248,
          6.2643022537231445,
          -6.251194953918457,
          -6.313811302185059,
          -6.32701301574707,
          6.314128398895264,
          6.346261978149414,
          -6.286730766296387,
          -6.3009724617004395,
          -6.312758922576904,
          6.305646896362305,
          -6.2438883781433105,
          -6.275619029998779,
          -6.371780872344971,
          -6.301602363586426,
          -6.31453800201416,
          6.351030349731445,
          -6.3053669929504395,
          -6.356987953186035,
          -6.134998321533203,
          -6.245461940765381,
          6.388456344604492,
          -6.327640533447266,
          -6.286999225616455,
          -6.275819778442383,
          6.367126941680908,
          -6.314694404602051,
          6.275344371795654,
          6.3931498527526855,
          6.219977378845215,
          -6.247132301330566,
          6.322419166564941,
          6.362374305725098,
          6.329977035522461,
          6.283812046051025,
          6.3877949714660645,
          -6.354066371917725,
          6.316388130187988,
          6.291959762573242,
          6.1149210929870605,
          6.259633541107178,
          -6.379401683807373,
          6.392614364624023,
          6.286379337310791,
          6.333662033081055,
          -6.36700439453125,
          -6.285263538360596,
          3.043001174926758,
          4.486546516418457,
          6.309451103210449,
          -3.8446695804595947,
          2.966064691543579,
          2.110752820968628,
          5.138828754425049,
          6.276346206665039,
          3.9263949394226074,
          -4.42896842956543,
          5.683015823364258,
          6.339000225067139,
          6.350734233856201,
          6.258147239685059,
          -2.4761974811553955,
          3.665191411972046,
          5.086498737335205,
          4.899394989013672,
          -1.9881947040557861
        ]
      },
      "cellActivationBias": {
        "rows": 20,
        "columns": 1,
        "weights": [
          -5.671135902404785,
          -6.24232292175293,
          -6.7082085609436035,
          5.690384864807129,
          1.8201911449432373,
          -6.321752071380615,
          1.351693034172058,
          5.466111660003662,
          5.626623630523682,
          5.840056419372559,
          -5.465054988861084,
          -9.332911491394043,
          -7.411675453186035,
          -1.2738536596298218,
          -8.963356971740723,
          8.354580879211426,
          -6.193212032318115,
          -6.272682189941406,
          5.3794379234313965,
          6.348392009735107
        ]
      }
    }
  ],
  "outputConnector": {
    "rows": 1,
    "columns": 20,
    "weights": [
      -2.226269245147705,
      -0.6690189242362976,
      -0.9399963021278381,
      -15.84701919555664,
      -1.9144713878631592,
      -0.6322952508926392,
      1.8134936094284058,
      2.025437593460083,
      2.140580892562866,
      2.08235239982605,
      -2.098410129547119,
      -1.203230381011963,
      10.522968292236328,
      9.408224105834961,
      -5.085335731506348,
      0.5017372369766235,
      -0.7967516183853149,
      -1.0495905876159668,
      2.0052268505096436,
      0.4331861734390259
    ]
  },
  "output": {
    "rows": 1,
    "columns": 1,
    "weights": [
      3.6032967567443848
    ]
  },
  "inputLookup": null,
  "inputLookupLength": 0,
  "outputLookup": null,
  "outputLookupLength": 0
}