{
  "type": "LSTMTimeStep",
  "options": {
    "inputSize": 1,
    "inputRange": 0,
    "hiddenLayers": [
      20
    ],
    "outputSize": 1,
    "decayRate": 0.999,
    "smoothEps": 1e-8,
    "regc": 0.000001,
    "clipval": 5,
    "maxPredictionLength": 100,
    "dataFormatter": {
      "indexTable": {},
      "characterTable": {},
      "characters": [],
      "specialIndexes": []
    }
  },
  "hiddenLayers": [
    {
      "inputMatrix": {
        "rows": 20,
        "columns": 1,
        "weights": [
          -1.273889422416687,
          -3.6386632919311523,
          -0.3157435953617096,
          -9.24499225616455,
          0.6685751676559448,
          0.3636209964752197,
          1.9138838052749634,
          -2.8984906673431396,
          0.7954615950584412,
          -0.033245690166950226,
          0.055884189903736115,
          1.2511248588562012,
          -1.1262067556381226,
          3.8421061038970947,
          -1.7634485960006714,
          0.5993292331695557,
          0.7267743349075317,
          0.7837920784950256,
          0.06503407657146454,
          0.20658710598945618
        ]
      },
      "inputHidden": {
        "rows": 20,
        "columns": 20,
        "weights": [
          -0.764933705329895,
          8.002426147460938,
          -2.1340291500091553,
          -6.563229560852051,
          -8.812274932861328,
          0.5874447226524353,
          -16.62837791442871,
          7.221401214599609,
          13.875509262084961,
          -4.922458648681641,
          -1.3284599781036377,
          5.936831951141357,
          0.44347986578941345,
          4.277989864349365,
          1.7896479368209839,
          3.2331981658935547,
          41.56014633178711,
          -10.966784477233887,
          -1.6780117750167847,
          -10.29356861114502,
          8.212457656860352,
          7.1815996170043945,
          4.0629706382751465,
          -10.153548240661621,
          -12.950332641601562,
          12.333867073059082,
          7.015028953552246,
          -7.261521339416504,
          13.0245361328125,
          -4.261300086975098,
          3.714545249938965,
          9.626965522766113,
          -4.223631381988525,
          12.938633918762207,
          0.7085066437721252,
          0.9171409010887146,
          12.937461853027344,
          -12.90058422088623,
          8.663871765136719,
          -11.3060941696167,
          -7.844736099243164,
          -6.266304016113281,
          6.112061977386475,
          -15.2774076461792,
          -6.135754585266113,
          14.360215187072754,
          14.709662437438965,
          5.415284156799316,
          12.711712837219238,
          12.89683723449707,
          -6.490971088409424,
          -5.14740514755249,
          13.638301849365234,
          9.922605514526367,
          1.744296669960022,
          1.5549429655075073,
          12.65489673614502,
          -10.416175842285156,
          -9.667418479919434,
          -2.6580615043640137,
          -2.575648069381714,
          13.8511381149292,
          6.8615031242370605,
          -6.414026260375977,
          -14.781506538391113,
          21.876331329345703,
          16.116886138916016,
          9.954061508178711,
          17.69771385192871,
          4.804502964019775,
          7.6205058097839355,
          18.66663360595703,
          -11.15951156616211,
          21.524568557739258,
          9.006629943847656,
          6.028425216674805,
          12.930339813232422,
          -24.679412841796875,
          -3.0154857635498047,
          -23.17229461669922,
          13.557892799377441,
          6.712859153747559,
          2.4593513011932373,
          18.95858383178711,
          6.785003185272217,
          6.8238396644592285,
          6.674539566040039,
          -9.357166290283203,
          -1.9728434085845947,
          -12.553367614746094,
          6.199529647827148,
          14.962966918945312,
          -13.415390968322754,
          14.552472114562988,
          7.6846442222595215,
          3.485219717025757,
          3.885296583175659,
          -5.823467254638672,
          13.667489051818848,
          0.6009021997451782,
          8.976301193237305,
          -9.525032997131348,
          -4.960335731506348,
          1.0772591829299927,
          2.9447648525238037,
          -6.408000469207764,
          -14.50728702545166,
          -11.579739570617676,
          -15.646407127380371,
          0.6657156944274902,
          -11.509136199951172,
          -11.557662010192871,
          -15.323500633239746,
          7.611248016357422,
          -1.273838758468628,
          -3.457871675491333,
          -11.71192741394043,
          8.852960586547852,
          12.089136123657227,
          6.255516052246094,
          3.0242533683776855,
          -11.72520923614502,
          -8.176090240478516,
          11.326554298400879,
          3.288463592529297,
          -16.44313621520996,
          -8.09255599975586,
          -7.2697224617004395,
          -12.739931106567383,
          -9.801291465759277,
          5.71804666519165,
          -2.4705305099487305,
          1.7347004413604736,
          -20.19070816040039,
          11.538301467895508,
          5.5088019371032715,
          -11.735116004943848,
          5.241923809051514,
          3.827235221862793,
          11.335944175720215,
          1.4501609802246094,
          -0.986883282661438,
          -23.360755920410156,
          -22.663455963134766,
          -16.262983322143555,
          2.9319064617156982,
          1.639638066291809,
          6.829301357269287,
          5.482210636138916,
          12.301618576049805,
          -16.41379737854004,
          8.52266788482666,
          -2.721759796142578,
          33.37866973876953,
          -4.579029083251953,
          -10.879106521606445,
          14.520545959472656,
          -16.790536880493164,
          1.308721899986267,
          -17.933610916137695,
          11.858209609985352,
          3.182871103286743,
          4.214698791503906,
          16.474937438964844,
          -30.168296813964844,
          4.90477180480957,
          -3.4732062816619873,
          -11.727344512939453,
          -4.099287509918213,
          -7.674190521240234,
          -0.15147943794727325,
          12.440817832946777,
          -2.4760711193084717,
          5.273786544799805,
          8.183348655700684,
          -5.176394462585449,
          -7.113122463226318,
          -4.2540812492370605,
          2.711148977279663,
          12.277069091796875,
          1.5941559076309204,
          -1.026237964630127,
          -10.174175262451172,
          -18.09476661682129,
          -12.127387046813965,
          9.514993667602539,
          7.387187957763672,
          7.829402923583984,
          11.013694763183594,
          -1.6048048734664917,
          -5.023218154907227,
          11.464536666870117,
          2.5049822330474854,
          14.676759719848633,
          -2.815875768661499,
          -6.46243953704834,
          17.926706314086914,
          -17.741186141967773,
          0.8459606170654297,
          -8.219610214233398,
          -6.056126594543457,
          -4.9830641746521,
          -10.642579078674316,
          -16.812458038330078,
          -10.654146194458008,
          9.713313102722168,
          9.511395454406738,
          4.471487522125244,
          10.46550178527832,
          4.790339469909668,
          -7.189751625061035,
          9.501287460327148,
          -2.197021245956421,
          9.69622802734375,
          -5.726245880126953,
          -8.489984512329102,
          11.974396705627441,
          -9.799683570861816,
          -5.636895179748535,
          -7.795374393463135,
          4.752375602722168,
          0.7042725086212158,
          -5.397965908050537,
          5.225679874420166,
          1.176287055015564,
          -5.166114807128906,
          -10.374473571777344,
          -6.521421909332275,
          -3.0088448524475098,
          -5.285675048828125,
          -11.767127990722656,
          -7.279020309448242,
          -3.341125249862671,
          -4.993831634521484,
          -4.68812370300293,
          -8.928935050964355,
          -10.127665519714355,
          6.06226110458374,
          8.279144287109375,
          5.317151069641113,
          8.624839782714844,
          -1.3625372648239136,
          -2.0788278579711914,
          -13.031728744506836,
          -2.4572629928588867,
          2.969773292541504,
          16.78775405883789,
          -7.850269794464111,
          -0.28439944982528687,
          -6.399962902069092,
          2.2965199947357178,
          9.965323448181152,
          -9.17551326751709,
          1.8004200458526611,
          0.8493011593818665,
          -2.3967862129211426,
          2.4515535831451416,
          1.6837975978851318,
          6.379909515380859,
          -2.058697462081909,
          6.79929780960083,
          3.8164196014404297,
          -3.421626329421997,
          9.421028137207031,
          11.909621238708496,
          -13.585469245910645,
          -20.608478546142578,
          -2.4626448154449463,
          -11.946040153503418,
          -10.8683500289917,
          -0.37802910804748535,
          -8.425043106079102,
          -10.489173889160156,
          -6.784033298492432,
          0.9180365204811096,
          0.3052680790424347,
          -12.103261947631836,
          10.488685607910156,
          8.238167762756348,
          10.776010513305664,
          -1.1522693634033203,
          -6.1963887214660645,
          -9.340001106262207,
          -19.618759155273438,
          4.4598002433776855,
          -7.1065239906311035,
          18.845855712890625,
          1.1597740650177002,
          1.0029582977294922,
          9.344727516174316,
          -5.88486385345459,
          13.62158203125,
          1.5121371746063232,
          10.256950378417969,
          -2.974414825439453,
          -5.259109973907471,
          5.6090779304504395,
          -12.154731750488281,
          -2.1442155838012695,
          7.834990501403809,
          -9.231893539428711,
          -1.3043179512023926,
          -0.19192622601985931,
          -9.833577156066895,
          -11.98328685760498,
          2.843219041824341,
          -0.0663970336318016,
          4.521862506866455,
          8.742561340332031,
          6.989932060241699,
          -7.656468868255615,
          10.22143268585205,
          9.979421615600586,
          8.824141502380371,
          4.540436744689941,
          -0.2201172113418579,
          12.443829536437988,
          -5.494914531707764,
          -14.196390151977539,
          -7.607684135437012,
          4.702646255493164,
          0.23200684785842896,
          3.196744441986084,
          18.21339988708496,
          -9.834610939025879,
          15.461601257324219,
          -0.7878972887992859,
          -6.483182430267334,
          -5.906121730804443,
          -3.195605516433716,
          14.943900108337402,
          -10.528595924377441,
          -6.637174129486084,
          4.253165245056152,
          -16.099483489990234,
          15.399602890014648,
          -18.149139404296875,
          -1.4412155151367188,
          4.847081184387207,
          -6.452922344207764,
          5.474161148071289,
          -2.237851619720459,
          -2.72248911857605,
          12.13509750366211,
          -47.35821533203125,
          -3.3888258934020996,
          0.024985378608107567,
          -13.523335456848145,
          -13.788029670715332,
          -4.090693950653076,
          -3.20509934425354,
          14.685235023498535,
          -4.729584217071533,
          8.150737762451172,
          14.036619186401367,
          -7.929024696350098,
          8.420066833496094,
          1.7109915018081665,
          6.60764217376709,
          3.9875869750976562,
          -8.918130874633789,
          -1.5110418796539307,
          -9.733113288879395,
          -18.969558715820312,
          -10.019349098205566,
          5.404872894287109,
          1.1565685272216797,
          16.286542892456055,
          9.973909378051758,
          -1.9584708213806152,
          -1.6234753131866455,
          11.310946464538574,
          7.365055084228516,
          8.52761459350586,
          6.336232662200928,
          0.12158532440662384,
          15.606404304504395,
          -8.657307624816895,
          -9.318156242370605,
          -6.762627601623535,
          14.011958122253418,
          5.257173538208008,
          -1.4498618841171265,
          10.083654403686523,
          2.5851352214813232,
          -1.6118545532226562,
          5.280113697052002,
          -15.981246948242188,
          -2.358410358428955,
          -3.628232955932617,
          0.4811033010482788,
          15.543476104736328,
          -12.989904403686523,
          4.718147277832031,
          1.0704870223999023,
          -1.2510632276535034,
          -2.991877317428589,
          12.457035064697266,
          8.341545104980469,
          7.823036193847656
        ]
      },
      "inputBias": {
        "rows": 20,
        "columns": 1,
        "weights": [
          0.2193078100681305,
          0.38226813077926636,
          1.0586248636245728,
          1.555903673171997,
          -2.7715020179748535,
          -1.2235815525054932,
          -1.6404352188110352,
          0.22557953000068665,
          -2.4235777854919434,
          0.3538542687892914,
          -0.0711829885840416,
          -2.8310086727142334,
          0.1960274875164032,
          -1.717226505279541,
          0.4435175061225891,
          0.43718811869621277,
          -3.0971930027008057,
          -1.7181355953216553,
          0.5367530584335327,
          -1.3362568616867065
        ]
      },
      "forgetMatrix": {
        "rows": 20,
        "columns": 1,
        "weights": [
          -2.8880269527435303,
          -6.55399227142334,
          0.9691022038459778,
          -5.638359069824219,
          6.710301399230957,
          0.6584082841873169,
          2.5012478828430176,
          -5.078750133514404,
          5.292231559753418,
          -0.5467089414596558,
          -1.3903552293777466,
          2.201108932495117,
          -4.327875137329102,
          -1.372566819190979,
          -2.920553684234619,
          -3.427969455718994,
          6.546029567718506,
          2.1820693016052246,
          -0.761452317237854,
          0.4741983711719513
        ]
      },
      "forgetHidden": {
        "rows": 20,
        "columns": 20,
        "weights": [
          -4.339138031005859,
          -0.16655732691287994,
          -3.1881258487701416,
          1.1595704555511475,
          -11.448375701904297,
          1.5373866558074951,
          8.518402099609375,
          6.425414562225342,
          17.11543846130371,
          5.515139102935791,
          -8.734664916992188,
          11.710517883300781,
          -1.1542266607284546,
          5.555873870849609,
          -6.014832973480225,
          -7.165580749511719,
          14.15579891204834,
          -14.998592376708984,
          -5.422382354736328,
          -7.19038200378418,
          3.1175637245178223,
          4.958014011383057,
          4.109622955322266,
          -7.527809143066406,
          -12.103107452392578,
          10.805855751037598,
          12.43408203125,
          -1.5866601467132568,
          12.308737754821777,
          -4.644598960876465,
          2.2084314823150635,
          11.33432674407959,
          -3.2547192573547363,
          12.530769348144531,
          0.98096764087677,
          3.559586524963379,
          11.963452339172363,
          -12.51767635345459,
          2.549177646636963,
          -11.509592056274414,
          -6.616999626159668,
          -0.9163686037063599,
          -14.391589164733887,
          -20.061006546020508,
          -8.292190551757812,
          7.282114028930664,
          16.602745056152344,
          0.32434433698654175,
          16.705724716186523,
          4.970625400543213,
          -5.553954124450684,
          7.06183385848999,
          3.3613810539245605,
          5.050682544708252,
          -8.301925659179688,
          -11.271563529968262,
          14.530247688293457,
          -8.535694122314453,
          -7.303135395050049,
          -7.548929214477539,
          -7.167780876159668,
          -2.270493745803833,
          -11.227330207824707,
          3.1792714595794678,
          5.746246814727783,
          -1.1569066047668457,
          -3.586930990219116,
          -9.3445405960083,
          -5.152632713317871,
          6.9209885597229,
          -14.797006607055664,
          -5.501035690307617,
          -0.8459304571151733,
          -4.086262226104736,
          -12.184995651245117,
          -13.926627159118652,
          -5.930515289306641,
          -0.4343557357788086,
          -7.920804500579834,
          1.6517724990844727,
          0.4035477638244629,
          -1.460323452949524,
          -0.4886215627193451,
          11.285218238830566,
          11.201038360595703,
          -11.980224609375,
          -12.350268363952637,
          -3.372528553009033,
          -11.531087875366211,
          0.1553565412759781,
          0.17960479855537415,
          -9.906658172607422,
          -0.1896473467350006,
          -12.12086009979248,
          -0.1248067319393158,
          -0.19511808454990387,
          -10.832923889160156,
          12.342270851135254,
          0.18628360331058502,
          12.304607391357422,
          7.224254131317139,
          4.527341842651367,
          19.46623992919922,
          7.812485218048096,
          14.229105949401855,
          -3.6865146160125732,
          -4.507352352142334,
          1.8635993003845215,
          -10.295560836791992,
          -7.32232666015625,
          3.7320749759674072,
          -3.554692268371582,
          -5.78729772567749,
          -4.22299337387085,
          1.4685418605804443,
          15.106295585632324,
          -6.154336452484131,
          12.361530303955078,
          6.040786266326904,
          8.457169532775879,
          -0.35851946473121643,
          -2.200155019760132,
          -19.096416473388672,
          11.333602905273438,
          12.095465660095215,
          -7.057522296905518,
          -1.9917532205581665,
          -0.9401732087135315,
          -12.24290657043457,
          18.66048812866211,
          -5.227418899536133,
          -5.866024494171143,
          -5.883955478668213,
          -12.649882316589355,
          -6.931271076202393,
          -7.211101531982422,
          -12.201300621032715,
          15.129290580749512,
          0.8820417523384094,
          11.767931938171387,
          -9.806869506835938,
          -7.456665515899658,
          0.6675093173980713,
          -19.78241539001465,
          2.896564245223999,
          -18.330425262451172,
          -17.702362060546875,
          15.294745445251465,
          8.040989875793457,
          -2.923743724822998,
          -0.11481297016143799,
          6.896631240844727,
          6.8582377433776855,
          -36.71417236328125,
          2.3697335720062256,
          -0.21526964008808136,
          46.72341537475586,
          -10.249174118041992,
          -4.699150562286377,
          -2.776618719100952,
          -0.9946073293685913,
          3.08341121673584,
          -2.500631332397461,
          13.688888549804688,
          18.061752319335938,
          -8.469630241394043,
          -11.114365577697754,
          -2.309966564178467,
          -16.81234359741211,
          -4.181097984313965,
          -0.7939993739128113,
          -5.678412914276123,
          -4.34036111831665,
          -11.119553565979004,
          4.407227039337158,
          -1.938035011291504,
          -12.634400367736816,
          11.32402515411377,
          -0.20822225511074066,
          9.09079360961914,
          -2.578354597091675,
          -0.9082110524177551,
          -3.6789867877960205,
          -5.382834434509277,
          -7.029439449310303,
          2.1866443157196045,
          -0.5037411451339722,
          1.789494276046753,
          3.900540590286255,
          2.615623712539673,
          -5.363016128540039,
          13.508337020874023,
          4.991466045379639,
          13.302597045898438,
          -4.665562629699707,
          -7.368532657623291,
          4.867480754852295,
          -5.365969181060791,
          -4.60179328918457,
          -2.714944362640381,
          -3.4675354957580566,
          -0.7479467988014221,
          -3.0101728439331055,
          -19.2048282623291,
          -5.648298263549805,
          9.37813949584961,
          20.054298400878906,
          -1.0138270854949951,
          13.154766082763672,
          3.0608632564544678,
          -4.597692966461182,
          13.21822738647461,
          8.073403358459473,
          9.785392761230469,
          -4.830364227294922,
          -5.66557502746582,
          16.515180587768555,
          -9.62690258026123,
          -4.3664655685424805,
          -7.43740701675415,
          4.618259429931641,
          5.234958648681641,
          -4.041451930999756,
          15.961323738098145,
          11.988247871398926,
          -11.405378341674805,
          -12.350391387939453,
          -0.26901453733444214,
          -11.238134384155273,
          -3.884592294692993,
          -3.0840582847595215,
          -10.302014350891113,
          -12.147503852844238,
          -10.007877349853516,
          11.165112495422363,
          4.927768707275391,
          -12.960718154907227,
          10.228606224060059,
          -2.1373987197875977,
          7.713856220245361,
          4.083263874053955,
          -4.039055824279785,
          -8.571348190307617,
          -18.047161102294922,
          -10.951443672180176,
          6.689486503601074,
          9.270284652709961,
          -3.9738423824310303,
          8.837697982788086,
          3.5060765743255615,
          -5.881737232208252,
          7.239123344421387,
          16.512325286865234,
          9.609268188476562,
          -18.080820083618164,
          -12.259196281433105,
          11.357000350952148,
          -9.649201393127441,
          1.933045744895935,
          -7.357152462005615,
          20.88526725769043,
          1.6741489171981812,
          6.856820106506348,
          12.834152221679688,
          12.158002853393555,
          5.585543155670166,
          17.08761215209961,
          -22.98159408569336,
          -12.051365852355957,
          -8.597986221313477,
          4.247786998748779,
          3.4213993549346924,
          -3.06378436088562,
          8.954575538635254,
          1.2345367670059204,
          8.380131721496582,
          -10.960785865783691,
          5.352930545806885,
          4.454732418060303,
          9.159528732299805,
          -8.77501392364502,
          12.00762939453125,
          12.651663780212402,
          -3.651153802871704,
          -15.590889930725098,
          10.123825073242188,
          22.822559356689453,
          15.106131553649902,
          2.2325439453125,
          1.4643433094024658,
          19.98721694946289,
          0.3103252947330475,
          11.310754776000977,
          17.164793014526367,
          16.50413703918457,
          15.702914237976074,
          10.726034164428711,
          0.5538362860679626,
          -5.908139228820801,
          -15.443670272827148,
          6.236645221710205,
          -8.366887092590332,
          -2.543083667755127,
          -7.087803840637207,
          -6.106594085693359,
          6.698083877563477,
          7.2645955085754395,
          -8.668617248535156,
          7.902679443359375,
          -5.927788257598877,
          6.208106994628906,
          12.802749633789062,
          5.021010875701904,
          8.935806274414062,
          0.9002347588539124,
          -3.542337656021118,
          6.57365083694458,
          -8.697129249572754,
          9.363015174865723,
          -7.0136213302612305,
          3.9279720783233643,
          -1.3972760438919067,
          -2.105008125305176,
          9.631817817687988,
          11.923744201660156,
          -11.29330825805664,
          -12.287238121032715,
          -0.6048932075500488,
          -11.81254768371582,
          1.660041093826294,
          -0.5550225377082825,
          -10.60913372039795,
          -2.9948837757110596,
          -12.348039627075195,
          -1.0595884323120117,
          -1.5903650522232056,
          -12.102487564086914,
          12.394803047180176,
          -0.5401554107666016,
          11.672343254089355,
          0.34740251302719116,
          5.014118671417236,
          -1.7204267978668213,
          8.00220012664795,
          12.283899307250977,
          -13.932662010192871,
          -14.774359703063965,
          5.997359275817871,
          -15.63084602355957,
          -0.9478206634521484,
          2.081489086151123,
          -14.034099578857422,
          -7.794248104095459,
          -11.508748054504395,
          -1.484653353691101,
          0.5977386236190796,
          -12.33088207244873,
          10.15378475189209,
          -1.7076735496520996,
          8.901597023010254,
          1.1951472759246826,
          5.359625816345215,
          -5.224293231964111,
          -10.743637084960938,
          -24.594181060791016,
          7.450464725494385,
          16.118892669677734,
          -3.1951262950897217,
          27.217153549194336,
          -0.3913404941558838,
          -5.105379581451416,
          13.202628135681152,
          -5.988898754119873,
          18.833919525146484,
          -4.4870734214782715,
          -4.73871374130249,
          21.56131362915039,
          -10.908535957336426,
          0.9857441782951355,
          -14.640824317932129,
          4.141776084899902,
          3.8147363662719727,
          9.571361541748047,
          12.208032608032227,
          8.669710159301758,
          -5.793045520782471,
          -9.16157341003418,
          1.9711865186691284,
          -11.54566478729248,
          -4.538573265075684,
          5.014094829559326,
          -11.363214492797852,
          -5.543542385101318,
          -7.732319355010986,
          4.013319492340088,
          4.62623405456543,
          -11.059937477111816,
          9.294585227966309,
          4.93154239654541,
          5.7933430671691895
        ]
      },
      "forgetBias": {
        "rows": 20,
        "columns": 1,
        "weights": [
          0,
          0,
          0,
          0,
          0,
          0,
          0,
          0,
          0,
          0,
          0,
          0,
          0,
          0,
          0,
          0,
          0,
          0,
          0,
          0
        ]
      },
      "outputMatrix": {
        "rows": 20,
        "columns": 1,
        "weights": [
          -0.4325512647628784,
          -3.368185520172119,
          0.02255340851843357,
          -6.842662811279297,
          3.3354310989379883,
          0.35004347562789917,
          1.7226790189743042,
          0.7049527764320374,
          1.7214748859405518,
          -0.9847885966300964,
          -0.4017036259174347,
          0.2866639494895935,
          -0.32796913385391235,
          1.7809706926345825,
          0.2149537056684494,
          -0.04367669299244881,
          0.44004935026168823,
          0.5721794366836548,
          -0.14567673206329346,
          0.15377339720726013
        ]
      },
      "outputHidden": {
        "rows": 20,
        "columns": 20,
        "weights": [
          1.3191691637039185,
          -0.16510048508644104,
          -10.95876693725586,
          -15.842995643615723,
          2.3094024658203125,
          -0.5674161911010742,
          -4.028857707977295,
          5.347701549530029,
          16.0173282623291,
          -1.5419825315475464,
          -2.871591329574585,
          8.926562309265137,
          4.923773765563965,
          5.937702655792236,
          -3.5449557304382324,
          -4.195300579071045,
          33.709259033203125,
          6.120673656463623,
          -0.4446558654308319,
          -7.784841060638428,
          8.091324806213379,
          7.230861186981201,
          4.379671096801758,
          -10.182310104370117,
          -12.988380432128906,
          12.75192642211914,
          5.996135234832764,
          -6.949272632598877,
          13.009340286254883,
          -3.5234720706939697,
          4.334864616394043,
          9.869721412658691,
          -4.864086627960205,
          12.93637752532959,
          1.3498585224151611,
          1.604211688041687,
          12.892870903015137,
          -12.870189666748047,
          8.882843017578125,
          -11.775031089782715,
          -2.4926931858062744,
          0.975233256816864,
          -4.426947593688965,
          -29.205337524414062,
          -7.031802177429199,
          6.553234100341797,
          9.252518653869629,
          -0.6492254734039307,
          5.756589889526367,
          6.328808784484863,
          -3.5820860862731934,
          14.622900009155273,
          -0.40667152404785156,
          19.053991317749023,
          2.56115984916687,
          -0.5285963416099548,
          14.89459228515625,
          -17.44310188293457,
          -4.1506524085998535,
          -5.037725448608398,
          -1.902400255203247,
          5.8654279708862305,
          6.358338832855225,
          -8.388069152832031,
          -19.875347137451172,
          24.691545486450195,
          23.499919891357422,
          6.798651695251465,
          19.884801864624023,
          1.7959171533584595,
          3.0122897624969482,
          22.069028854370117,
          -2.6852188110351562,
          20.606786727905273,
          9.245889663696289,
          5.038693428039551,
          19.716915130615234,
          -20.81456184387207,
          -1.2379183769226074,
          -21.314754486083984,
          10.516645431518555,
          -3.348811626434326,
          0.6172990202903748,
          22.610116958618164,
          15.192625999450684,
          -11.227645874023438,
          -12.494125366210938,
          -9.855996131896973,
          -18.43535041809082,
          -1.0137068033218384,
          -3.4948601722717285,
          0.6779541373252869,
          -8.46814250946045,
          -19.548608779907227,
          0.5860341787338257,
          -1.9238899946212769,
          -15.813395500183105,
          6.778051853179932,
          6.838739395141602,
          3.617807388305664,
          9.202138900756836,
          -9.276630401611328,
          -7.21740198135376,
          10.514726638793945,
          -2.567603826522827,
          -5.629356384277344,
          -20.714767456054688,
          -3.112999200820923,
          -14.140128135681152,
          2.5580356121063232,
          -4.212432861328125,
          -13.531845092773438,
          -15.202181816101074,
          0.40172746777534485,
          2.552070140838623,
          -6.821612358093262,
          -13.10488510131836,
          11.415935516357422,
          6.414545059204102,
          2.5654284954071045,
          -6.905521392822266,
          -7.343425273895264,
          0.034857507795095444,
          18.192609786987305,
          10.644987106323242,
          -15.901473045349121,
          -18.57232666015625,
          -5.8239264488220215,
          -16.56304931640625,
          4.876781940460205,
          -1.1044070720672607,
          -16.032472610473633,
          4.491481304168701,
          -17.681520462036133,
          -2.683758020401001,
          -0.23047849535942078,
          -13.869333267211914,
          10.508337020874023,
          -5.873584747314453,
          16.895421981811523,
          -10.676349639892578,
          -2.9757633209228516,
          -10.36036491394043,
          -24.117488861083984,
          2.3294458389282227,
          -15.729616165161133,
          1.9622950553894043,
          9.923322677612305,
          12.189669609069824,
          11.091124534606934,
          -10.216632843017578,
          20.924222946166992,
          4.30397367477417,
          -4.882949352264404,
          0.5928785800933838,
          -10.483839988708496,
          22.41014862060547,
          9.217890739440918,
          -10.64784049987793,
          -5.959442615509033,
          -1.1913541555404663,
          0.7685882449150085,
          5.7133684158325195,
          12.72415542602539,
          16.67759132385254,
          -8.183097839355469,
          -8.827478408813477,
          -6.316521167755127,
          -19.133493423461914,
          11.188997268676758,
          0.7069993019104004,
          -4.751501083374023,
          3.6133413314819336,
          -10.85466194152832,
          2.8254618644714355,
          0.9185019731521606,
          -15.289776802062988,
          11.29643440246582,
          1.8818429708480835,
          16.044233322143555,
          3.2620792388916016,
          -4.799614906311035,
          -7.41650390625,
          -8.754194259643555,
          -12.047927856445312,
          13.591913223266602,
          -8.400735855102539,
          -2.589296579360962,
          10.878804206848145,
          -5.856860637664795,
          -9.26627254486084,
          4.4738593101501465,
          9.929191589355469,
          11.599717140197754,
          -16.898801803588867,
          -13.848220825195312,
          11.412952423095703,
          -21.683277130126953,
          0.9902823567390442,
          -11.51977252960205,
          -1.5374361276626587,
          -7.926467418670654,
          -5.77227783203125,
          -3.3680083751678467,
          -19.01282501220703,
          16.81327247619629,
          20.75722312927246,
          1.0311123132705688,
          12.96082878112793,
          0.3532281517982483,
          -2.177506923675537,
          12.800125122070312,
          -0.37003204226493835,
          15.062999725341797,
          -2.3941054344177246,
          -5.115940093994141,
          14.712357521057129,
          -16.234329223632812,
          -2.567619800567627,
          -21.762466430664062,
          7.514461040496826,
          -2.147606372833252,
          -8.037637710571289,
          4.548361301422119,
          5.152496337890625,
          -10.366232872009277,
          -6.071160793304443,
          -5.043544292449951,
          -6.886323928833008,
          -8.332255363464355,
          -5.902125358581543,
          -4.878632545471191,
          -5.546980857849121,
          -11.330790519714355,
          -5.850094318389893,
          -7.885004043579102,
          -2.3274569511413574,
          9.375541687011719,
          7.947829723358154,
          11.084633827209473,
          -2.916156530380249,
          0.9896462559700012,
          -9.094255447387695,
          -15.673955917358398,
          -12.383191108703613,
          12.320722579956055,
          10.125411033630371,
          -5.892825126647949,
          11.875701904296875,
          6.796066761016846,
          -2.561481475830078,
          -1.2570042610168457,
          1.5719496011734009,
          10.495221138000488,
          -6.948125839233398,
          -17.23119354248047,
          7.270055294036865,
          -5.466984748840332,
          7.071058750152588,
          -8.532504081726074,
          8.822168350219727,
          6.526236057281494,
          1.303823709487915,
          22.655986785888672,
          5.336620330810547,
          -6.345334529876709,
          -17.641239166259766,
          -11.178218841552734,
          -5.621299743652344,
          -14.02034854888916,
          2.047501802444458,
          -0.5039777755737305,
          -9.949029922485352,
          -10.05803108215332,
          -2.2345786094665527,
          -1.8788875341415405,
          -5.414496898651123,
          12.138775825500488,
          10.249043464660645,
          2.4665472507476807,
          -14.400199890136719,
          -3.3962082862854004,
          -6.36037015914917,
          -25.461719512939453,
          -9.033862113952637,
          8.230483055114746,
          7.355512619018555,
          16.289838790893555,
          13.205562591552734,
          -0.5122304558753967,
          0.5483846664428711,
          7.212240695953369,
          3.9821040630340576,
          13.608576774597168,
          3.922945737838745,
          -1.267128586769104,
          12.294968605041504,
          -9.668092727661133,
          -16.091468811035156,
          -5.357964038848877,
          -1.9429908990859985,
          -1.3188730478286743,
          -7.142490863800049,
          -11.88791275024414,
          -17.247299194335938,
          9.143696784973145,
          6.224305152893066,
          -1.501122236251831,
          14.228227615356445,
          0.9013366103172302,
          -7.980339527130127,
          9.338473320007324,
          2.4768691062927246,
          14.531450271606445,
          0.16018028557300568,
          -4.524090766906738,
          18.418432235717773,
          -15.360312461853027,
          -3.319108009338379,
          -7.850667953491211,
          8.119078636169434,
          0.8943624496459961,
          -2.590266466140747,
          5.742680072784424,
          12.24207878112793,
          -9.75472640991211,
          -7.607970714569092,
          -12.930582046508789,
          -16.8006591796875,
          -4.837723255157471,
          -1.4860577583312988,
          -3.2891576290130615,
          -7.558823108673096,
          -20.19562339782715,
          -10.512533187866211,
          -2.9607019424438477,
          -18.35106086730957,
          20.575220108032227,
          5.150361061096191,
          10.277999877929688,
          4.549672603607178,
          -5.821073532104492,
          -4.2467756271362305,
          13.569497108459473,
          4.2270588874816895,
          -20.8348331451416,
          -16.204891204833984,
          -3.1699819564819336,
          -7.221127510070801,
          -3.229635000228882,
          1.8309834003448486,
          -11.05352783203125,
          -2.490755558013916,
          -15.178654670715332,
          7.614855766296387,
          -4.201973915100098,
          -18.087505340576172,
          11.212687492370605,
          5.047229766845703,
          9.916383743286133,
          4.3588738441467285,
          3.2281687259674072,
          -6.867952346801758,
          -1.791505217552185,
          -16.126873016357422,
          8.641913414001465,
          6.33314847946167,
          2.1377809047698975,
          16.07879066467285,
          -3.1732914447784424,
          -3.639023542404175,
          11.503921508789062,
          -0.03342420607805252,
          11.106345176696777,
          -3.6385602951049805,
          -2.2987446784973145,
          20.86806869506836,
          -9.494933128356934,
          -1.1273629665374756,
          -10.438963890075684,
          6.348641395568848,
          1.48720383644104,
          -4.9701056480407715,
          23.254117965698242,
          -7.232692241668701,
          -6.6549391746521,
          -10.218031883239746,
          -2.0178911685943604,
          -16.616687774658203,
          -3.5002195835113525,
          2.9954326152801514,
          -4.604006290435791,
          -14.438186645507812,
          -4.2779154777526855,
          3.084613084793091,
          -1.988181233406067,
          -15.286941528320312,
          -5.134359836578369,
          6.518007755279541,
          -1.6341099739074707
        ]
      },
      "outputBias": {
        "rows": 20,
        "columns": 1,
        "weights": [
          0.23588354885578156,
          0.3869491517543793,
          0.958023190498352,
          1.3839316368103027,
          -2.701951503753662,
          -1.3088666200637817,
          -1.6695284843444824,
          0.189974844455719,
          -2.3967339992523193,
          0.3697907626628876,
          -0.021382104605436325,
          -2.7828757762908936,
          0.21096982061862946,
          -1.7525665760040283,
          0.44656994938850403,
          0.4173586070537567,
          -2.9907569885253906,
          -1.746213436126709,
          0.5444135069847107,
          -1.4121594429016113
        ]
      },
      "cellActivationMatrix": {
        "rows": 20,
        "columns": 1,
        "weights": [
          -1.7083055973052979,
          -0.5868125557899475,
          -0.4474922716617584,
          -6.198373317718506,
          0.666826605796814,
          -0.7364989519119263,
          -1.2212269306182861,
          0.20878224074840546,
          -0.10942591726779938,
          -0.010485881939530373,
          -0.2026253640651703,
          -0.052655961364507675,
          0.09922988712787628,
          -0.018734075129032135,
          -2.103020668029785,
          -0.09071960300207138,
          -0.9249792695045471,
          0.28691399097442627,
          -0.6591895222663879,
          0.13787966966629028
        ]
      },
      "cellActivationHidden": {
        "rows": 20,
        "columns": 20,
        "weights": [
          2.9333698749542236,
          -1.6535369157791138,
          -0.7194146513938904,
          -8.078805923461914,
          -13.60851001739502,
          13.88829231262207,
          15.080638885498047,
          -17.81524658203125,
          13.58255386352539,
          4.718378067016602,
          1.5338196754455566,
          7.365982532501221,
          -0.4601769745349884,
          11.600357055664062,
          -13.065342903137207,
          -8.578768730163574,
          12.145190238952637,
          -19.84063720703125,
          4.0274786949157715,
          -8.098429679870605,
          -2.75742244720459,
          -0.10580747574567795,
          0.4731889069080353,
          0.304473340511322,
          -12.578470230102539,
          8.822527885437012,
          16.857744216918945,
          0.41261884570121765,
          12.551092147827148,
          -0.3746020197868347,
          0.5216966271400452,
          13.773272514343262,
          4.566333770751953,
          12.276165962219238,
          -1.3662269115447998,
          0.487108051776886,
          12.378613471984863,
          -11.6998929977417,
          -2.0815906524658203,
          -8.76091194152832,
          -0.4474731385707855,
          -4.078658580780029,
          -3.6767578125,
          -12.017292976379395,
          -7.419508934020996,
          3.3620171546936035,
          3.1378371715545654,
          -9.90875244140625,
          9.106400489807129,
          2.9611244201660156,
          -6.222416877746582,
          7.885415077209473,
          4.062013149261475,
          7.681344032287598,
          -7.90098762512207,
          -4.146196365356445,
          7.624557018280029,
          2.122366428375244,
          -3.6390390396118164,
          -5.056583881378174,
          -7.393600940704346,
          -12.271963119506836,
          -8.502193450927734,
          -2.9842896461486816,
          0.32381561398506165,
          0.13153642416000366,
          0.020301761105656624,
          -15.69718074798584,
          -0.11440259963274002,
          11.735330581665039,
          -9.112916946411133,
          -0.43584826588630676,
          16.781347274780273,
          0.021563710644841194,
          -16.49155044555664,
          -17.7740535736084,
          -0.5317620038986206,
          0.04986859858036041,
          -7.554078102111816,
          -0.09961946308612823,
          11.897708892822266,
          13.61720085144043,
          11.816675186157227,
          12.772677421569824,
          -6.1654157638549805,
          -2.025007486343384,
          -7.280851364135742,
          -1.818617820739746,
          -1.0851529836654663,
          -12.6299409866333,
          12.593208312988281,
          -6.096749305725098,
          -13.091991424560547,
          -0.3638972043991089,
          13.85002613067627,
          12.419596672058105,
          -6.497559547424316,
          0.49394187331199646,
          8.116551399230957,
          1.639013409614563,
          -9.200711250305176,
          -5.281477451324463,
          -7.866670608520508,
          -5.616303443908691,
          -15.916084289550781,
          13.997428894042969,
          5.038346290588379,
          -8.077778816223145,
          15.932595252990723,
          -0.26699188351631165,
          -8.58283519744873,
          20.95915985107422,
          7.480956077575684,
          7.074019432067871,
          -5.800454139709473,
          -5.510851860046387,
          15.870807647705078,
          -14.138206481933594,
          -2.0648531913757324,
          -9.675307273864746,
          -6.075808048248291,
          -5.783013820648193,
          -4.428396701812744,
          -6.191145896911621,
          -6.343459606170654,
          6.29717493057251,
          6.065623760223389,
          -11.946352005004883,
          5.651230812072754,
          9.460526466369629,
          -4.84047794342041,
          1.9815645217895508,
          6.878668308258057,
          6.261082172393799,
          -8.24729061126709,
          -5.563967704772949,
          8.4999418258667,
          -6.324841499328613,
          -6.671476364135742,
          -6.3878092765808105,
          -9.951130867004395,
          -4.90388822555542,
          -2.5352954864501953,
          -2.558375597000122,
          -8.235161781311035,
          3.8479666709899902,
          7.543963432312012,
          1.1791191101074219,
          7.373714447021484,
          5.3303542137146,
          -3.291335344314575,
          8.307244300842285,
          12.014187812805176,
          13.310317039489746,
          -3.081833600997925,
          -0.5974047183990479,
          7.905336380004883,
          -4.8381829261779785,
          -8.693696022033691,
          -6.404452800750732,
          -1.1075202226638794,
          -6.320559501647949,
          -0.8744242191314697,
          -6.360350608825684,
          -11.922378540039062,
          3.784768581390381,
          7.642731666564941,
          -6.241474628448486,
          11.411831855773926,
          6.048870086669922,
          -0.24263542890548706,
          1.032556176185608,
          6.310032367706299,
          6.254279613494873,
          -5.956531047821045,
          -1.84172523021698,
          6.319346904754639,
          -7.686750411987305,
          -0.27344247698783875,
          -3.299487590789795,
          2.057497978210449,
          12.06329345703125,
          4.743557453155518,
          10.874390602111816,
          2.566011905670166,
          -0.35685715079307556,
          -5.136988162994385,
          2.0068929195404053,
          -5.66632604598999,
          -2.4819905757904053,
          2.7390995025634766,
          -4.172545909881592,
          -9.34825611114502,
          -2.9292635917663574,
          3.9467411041259766,
          2.7511940002441406,
          -6.313018798828125,
          3.179400682449341,
          1.4192917346954346,
          0.5157172083854675,
          -6.029984951019287,
          -7.254892826080322,
          -3.640477180480957,
          -2.4657559394836426,
          -7.1094865798950195,
          2.739609718322754,
          -3.4597103595733643,
          -0.23324695229530334,
          -4.150362968444824,
          6.547201156616211,
          -6.348366737365723,
          6.254962921142578,
          9.128726959228516,
          -1.6654270887374878,
          -10.688393592834473,
          -5.505835056304932,
          1.3581790924072266,
          -5.765793323516846,
          -5.042068004608154,
          -3.9841511249542236,
          1.341095209121704,
          -13.351485252380371,
          -11.717464447021484,
          -12.439213752746582,
          -13.043844223022461,
          3.0574941635131836,
          7.293554306030273,
          1.488185167312622,
          16.500865936279297,
          7.125249862670898,
          3.1393015384674072,
          -1.6537848711013794,
          3.116497755050659,
          -3.003936290740967,
          -0.24235939979553223,
          -6.49209451675415,
          8.483552932739258,
          -6.09598445892334,
          0.6006224155426025,
          -1.8935062885284424,
          3.6057348251342773,
          6.666125774383545,
          8.401982307434082,
          9.679609298706055,
          7.2849531173706055,
          -5.66513204574585,
          -8.444687843322754,
          0.8886567950248718,
          -6.85692834854126,
          -9.13288402557373,
          8.10445785522461,
          -3.6372947692871094,
          -6.192220687866211,
          -6.634875297546387,
          4.9529032707214355,
          8.841614723205566,
          -7.178620338439941,
          2.186579942703247,
          -0.777082622051239,
          6.345723628997803,
          -10.040401458740234,
          -10.10362720489502,
          -11.987495422363281,
          -1.8401316404342651,
          -5.678248882293701,
          9.298949241638184,
          2.3901169300079346,
          3.6664059162139893,
          7.401237964630127,
          3.9114458560943604,
          -6.222785949707031,
          1.5554777383804321,
          7.634173393249512,
          8.05159854888916,
          -5.293727874755859,
          -16.931015014648438,
          -0.561945378780365,
          -6.251010417938232,
          -5.077672958374023,
          -5.8892107009887695,
          -15.338065147399902,
          -9.900153160095215,
          -14.823399543762207,
          -1.3623206615447998,
          -7.912431716918945,
          15.974512100219727,
          0.6766628623008728,
          -2.502700090408325,
          -4.35486364364624,
          14.96585464477539,
          -14.88004207611084,
          1.0405305624008179,
          16.834142684936523,
          8.025612831115723,
          -4.661540508270264,
          -14.326214790344238,
          -5.162947654724121,
          -9.912818908691406,
          -13.506258010864258,
          -11.109145164489746,
          -5.401593208312988,
          -4.082897186279297,
          -5.660273551940918,
          -5.6479058265686035,
          -7.3329362869262695,
          4.442625999450684,
          -1.1586015224456787,
          -5.820412635803223,
          8.372526168823242,
          5.905566692352295,
          -5.943214416503906,
          7.747857570648193,
          2.8296937942504883,
          1.0376685857772827,
          -6.073391914367676,
          -5.545553684234619,
          2.7837440967559814,
          -6.486968040466309,
          -4.981443405151367,
          -6.0074615478515625,
          -7.958531379699707,
          -10.988085746765137,
          -19.24280548095703,
          -14.907339096069336,
          4.689852714538574,
          0.04284815117716789,
          5.29788064956665,
          -0.1236400380730629,
          6.685319900512695,
          9.972163200378418,
          -13.069634437561035,
          10.348088264465332,
          9.222193717956543,
          4.3909196853637695,
          -15.168625831604004,
          -15.463973045349121,
          4.6437296867370605,
          11.107168197631836,
          -7.609169960021973,
          -4.258334636688232,
          8.053887367248535,
          6.347052574157715,
          10.103988647460938,
          6.860548973083496,
          6.467470645904541,
          -6.29872989654541,
          -8.224175453186035,
          -2.0096230506896973,
          -10.865999221801758,
          -6.582962989807129,
          8.273270606994629,
          -6.0567522048950195,
          -6.33677864074707,
          -2.8034822940826416,
          2.6454315185546875,
          9.224846839904785,
          -10.167695999145508,
          -2.9661195278167725,
          3.223524808883667,
          6.343335151672363,
          0.6577882170677185,
          3.0303966999053955,
          2.003002166748047,
          -1.517615556716919,
          -12.400054931640625,
          9.594879150390625,
          11.20659065246582,
          -20.3199405670166,
          12.914709091186523,
          -1.6994801759719849,
          0.7489370703697205,
          12.793169021606445,
          -1.4689198732376099,
          12.672186851501465,
          0.4787350296974182,
          1.527404546737671,
          11.598567962646484,
          -11.903146743774414,
          0.34572041034698486,
          -10.066145896911621,
          7.04408597946167,
          6.39616584777832,
          8.323582649230957,
          6.306236267089844,
          6.313179016113281,
          -6.384131908416748,
          -5.240640640258789,
          6.039717674255371,
          -6.264380931854248,
          -6.243207931518555,
          6.876336574554443,
          -5.92788028717041,
          -6.37738561630249,
          -6.387660980224609,
          5.615377426147461,
          7.54147481918335,
          -6.377577304840088,
          6.347622871398926,
          6.395320892333984,
          6.2803053855896
        ]
      },
      "cellActivationBias": {
        "rows": 20,
        "columns": 1,
        "weights": [
          7.729989051818848,
          -1.6763451099395752,
          -9.025872230529785,
          -1.5046753883361816,
          10.919032096862793,
          -8.444293975830078,
          -11.148850440979004,
          10.81047534942627,
          -9.02507495880127,
          10.0148286819458,
          -10.38984203338623,
          -8.744004249572754,
          -0.9288450479507446,
          -10.831093788146973,
          -1.84505295753479,
          -3.7563772201538086,
          -8.4046630859375,
          11.075319290161133,
          -10.07413387298584,
          8.702066421508789
        ]
      }
    }
  ],
  "outputConnector": {
    "rows": 1,
    "columns": 20,
    "weights": [
      6.805720806121826,
      0.21644479036331177,
      2.050304889678955,
      -0.3712470531463623,
      3.0267348289489746,
      -2.747514486312866,
      -2.8895862102508545,
      -16.733280181884766,
      -3.4528167247772217,
      -0.5714760422706604,
      0.21056608855724335,
      -3.5379340648651123,
      -3.1794774532318115,
      -2.9312963485717773,
      -1.028640866279602,
      3.4863297939300537,
      -3.7268197536468506,
      3.293243646621704,
      -0.7660359144210815,
      3.2583508491516113
    ]
  },
  "output": {
    "rows": 1,
    "columns": 1,
    "weights": [
      3.475640296936035
    ]
  },
  "inputLookup": null,
  "inputLookupLength": 0,
  "outputLookup": null,
  "outputLookupLength": 0
}